{"learner":{"attributes":{"scikit_learn":"{\"_estimator_type\": \"regressor\"}"},"feature_names":["temperature_2m_mean","precipitation_sum","wind_speed_10m_max","wind_direction_10m_dominant"],"feature_types":["float","float","float","float"],"gradient_booster":{"model":{"gbtree_model_param":{"num_parallel_tree":"1","num_trees":"100"},"iteration_indptr":[0,1,2,3,4,5,6,7,8,9,10,11,12,13,14,15,16,17,18,19,20,21,22,23,24,25,26,27,28,29,30,31,32,33,34,35,36,37,38,39,40,41,42,43,44,45,46,47,48,49,50,51,52,53,54,55,56,57,58,59,60,61,62,63,64,65,66,67,68,69,70,71,72,73,74,75,76,77,78,79,80,81,82,83,84,85,86,87,88,89,90,91,92,93,94,95,96,97,98,99,100],"tree_info":[0,0,0,0,0,0,0,0,0,0,0,0,0,0,0,0,0,0,0,0,0,0,0,0,0,0,0,0,0,0,0,0,0,0,0,0,0,0,0,0,0,0,0,0,0,0,0,0,0,0,0,0,0,0,0,0,0,0,0,0,0,0,0,0,0,0,0,0,0,0,0,0,0,0,0,0,0,0,0,0,0,0,0,0,0,0,0,0,0,0,0,0,0,0,0,0,0,0,0,0],"trees":[{"base_weights":[-1.68563E-6,1.9041367E1,-1.4114323E1,3.35178E1,1.4480094E0,-7.172978E0,-2.1155174E1,3.771322E1,9.022446E0,7.582129E0,-1.9131502E1,8.964122E0,-1.6264046E1,-1.2962585E1,-2.369049E1,4.8474903E1,2.7438763E1,2.2109894E1,-8.390431E-1,3.8195837E-1,1.2816963E1,-4.0423897E1,-9.778435E0,1.8565527E1,-2.6576E0,-1.7916166E0,-2.2677061E1,1.8591244E1,-1.5890553E1,-2.0314365E1,-2.8265247E1,4.292547E1,5.6786133E1,1.3714813E1,3.5657227E1,1.5627619E1,4.270133E1,-1.2383549E1,1.9405794E1,-2.0837662E0,1.8855795E1,2.4470873E1,2.738682E0,-1.7423819E1,-2.9176172E1,3.4622993E1,-1.1850376E1,2.6288445E1,1.1816803E1,-1.5740106E1,3.252039E0,2.826528E1,-8.404226E0,-2.498699E1,5.4542165E0,4.2569138E1,-5.2405547E-2,-1.927573E1,-4.1991854E0,-1.595563E1,-2.654734E1,1.0442662E1,-2.8626804E1,1.3747325E1,8.286727E0,1.7962944E1,7.817453E0,5.8856277E0,-1.7887698E0,1.1589132E1,6.735987E0,1.3772137E-1,7.4117384E0,1.5999359E1,7.0593586E0,4.0409985E0,-5.1424417E0,1.0034279E1,1.4629074E0,1.6984528E0,-2.421969E0,8.545918E0,-2.5090017E0,2.2976608E0,9.368288E0,1.6974956E0,-1.0656268E1,4.8245993E0,-9.552941E0,-4.025401E0,1.6532799E1,-2.7994928E0,-1.4480642E1,1.2537871E1,5.6822143E0,6.1457286E0,7.980268E-1,-6.7668447E0,4.541368E-2,2.013952E0,-5.854902E0,1.2405919E1,3.6671126E0,-9.0966105E-2,-4.3764853E0,-2.6326997E0,-8.305927E0,8.668049E0,-1.2582618E0,1.2245991E0,1.4490999E1,5.232799E0,-1.9819517E0,-1.8081796E0,-6.7589674E0,-6.2149734E0,-1.7047453E-1,-9.254082E0,-4.404787E0,-9.672964E0,-2.234111E0,6.0245996E0,-1.325401E0,-8.808095E0,-3.1461835E0],"categories":[],"categories_nodes":[],"categories_segments":[],"categories_sizes":[],"default_left":[0,0,0,0,0,0,0,0,0,0,0,0,0,0,0,0,0,0,0,0,0,0,0,0,0,0,0,0,0,0,0,0,0,0,0,0,0,0,0,0,0,0,0,0,0,0,0,0,0,0,0,0,0,0,0,0,0,0,0,0,0,0,0,0,0,0,0,0,0,0,0,0,0,0,0,0,0,0,0,0,0,0,0,0,0,0,0,0,0,0,0,0,0,0,0,0,0,0,0,0,0,0,0,0,0,0,0,0,0,0,0,0,0,0,0,0,0,0,0,0,0,0,0,0,0],"id":0,"left_children":[1,3,5,7,9,11,13,15,17,19,21,23,25,27,29,31,33,35,37,39,41,43,45,47,49,51,53,55,57,59,61,63,65,67,69,71,73,75,77,79,81,83,85,-1,87,89,91,93,95,97,99,101,103,105,107,109,111,113,115,117,119,121,123,-1,-1,-1,-1,-1,-1,-1,-1,-1,-1,-1,-1,-1,-1,-1,-1,-1,-1,-1,-1,-1,-1,-1,-1,-1,-1,-1,-1,-1,-1,-1,-1,-1,-1,-1,-1,-1,-1,-1,-1,-1,-1,-1,-1,-1,-1,-1,-1,-1,-1,-1,-1,-1,-1,-1,-1,-1,-1,-1,-1,-1,-1],"loss_changes":[7.216098E5,2.9106103E5,7.5210375E4,6.4095438E4,6.5409684E4,1.1428109E5,1.5582594E4,5.7825125E4,1.2021291E4,1.5034098E4,2.3303469E4,3.140468E4,4.6179703E4,1.720254E4,8.430219E3,9.5543125E3,3.0640938E4,4.6718535E3,1.2861012E4,7.7374756E3,2.7064246E4,5.454496E3,8.1380596E3,7.7158125E3,9.947236E3,3.0845744E4,2.2554812E4,7.1547983E3,6.568047E3,8.786328E3,3.7277344E3,5.8322188E3,8.0306875E3,1.2315268E4,5.8850156E3,4.3951455E3,5.7903516E2,4.536217E3,3.9172866E3,7.0042134E3,5.4809736E3,1.1915445E4,1.4163996E4,0E0,3.4089473E3,4.676193E3,6.9795684E3,7.296914E3,6.6133564E3,4.3360967E3,7.1446104E3,5.373074E3,6.3579062E3,1.3716922E4,6.2272905E3,1.3476738E3,1.2618793E3,5.4688516E3,2.3271987E3,3.3763438E3,1.47733125E4,5.18463E2,2.9253438E3,0E0,0E0,0E0,0E0,0E0,0E0,0E0,0E0,0E0,0E0,0E0,0E0,0E0,0E0,0E0,0E0,0E0,0E0,0E0,0E0,0E0,0E0,0E0,0E0,0E0,0E0,0E0,0E0,0E0,0E0,0E0,0E0,0E0,0E0,0E0,0E0,0E0,0E0,0E0,0E0,0E0,0E0,0E0,0E0,0E0,0E0,0E0,0E0,0E0,0E0,0E0,0E0,0E0,0E0,0E0,0E0,0E0,0E0,0E0,0E0,0E0,0E0],"parents":[2147483647,0,0,1,1,2,2,3,3,4,4,5,5,6,6,7,7,8,8,9,9,10,10,11,11,12,12,13,13,14,14,15,15,16,16,17,17,18,18,19,19,20,20,21,21,22,22,23,23,24,24,25,25,26,26,27,27,28,28,29,29,30,30,31,31,32,32,33,33,34,34,35,35,36,36,37,37,38,38,39,39,40,40,41,41,42,42,44,44,45,45,46,46,47,47,48,48,49,49,50,50,51,51,52,52,53,53,54,54,55,55,56,56,57,57,58,58,59,59,60,60,61,61,62,62],"right_children":[2,4,6,8,10,12,14,16,18,20,22,24,26,28,30,32,34,36,38,40,42,44,46,48,50,52,54,56,58,60,62,64,66,68,70,72,74,76,78,80,82,84,86,-1,88,90,92,94,96,98,100,102,104,106,108,110,112,114,116,118,120,122,124,-1,-1,-1,-1,-1,-1,-1,-1,-1,-1,-1,-1,-1,-1,-1,-1,-1,-1,-1,-1,-1,-1,-1,-1,-1,-1,-1,-1,-1,-1,-1,-1,-1,-1,-1,-1,-1,-1,-1,-1,-1,-1,-1,-1,-1,-1,-1,-1,-1,-1,-1,-1,-1,-1,-1,-1,-1,-1,-1,-1,-1,-1],"split_conditions":[2.3452002E1,1.4973577E1,1.9000003E0,2.2E0,4.2000003E0,1.397406E2,7.7434654E1,1.1681987E1,1.1304229E1,3.4476845E1,2.4650553E1,1.3979872E1,2.720408E1,9.085988E0,1.4336861E1,1.2387085E2,6.3038357E1,8.852368E1,1.3556282E1,2.289611E1,2.0699919E1,1.3799915E1,2.7169212E1,2.6224915E1,3.2407352E1,1.3276144E1,3.1225824E2,1.0099999E1,2.7931166E1,1.09E1,2.3531168E1,2.0699919E1,3.520929E2,1E-1,1.5600449E2,3.3000002E0,3.3000002E0,2.8000002E0,1.4113652E1,1.793858E1,3.1161812E1,1.6326998E1,1.6322629E2,-1.7423819E1,1.5509274E1,1.6676416E1,3.5053775E2,1.0144082E1,1.1638976E2,2.6583252E1,1.1000001E0,1E-1,2.4872248E1,1.1119281E1,1.1212135E1,6.638072E0,2.1999195E1,2.4872248E1,4.3999996E0,2.1000001E0,2.8093664E1,2.2E0,3.0368082E1,1.3747325E1,8.286727E0,1.7962944E1,7.817453E0,5.8856277E0,-1.7887698E0,1.1589132E1,6.735987E0,1.3772137E-1,7.4117384E0,1.5999359E1,7.0593586E0,4.0409985E0,-5.1424417E0,1.0034279E1,1.4629074E0,1.6984528E0,-2.421969E0,8.545918E0,-2.5090017E0,2.2976608E0,9.368288E0,1.6974956E0,-1.0656268E1,4.8245993E0,-9.552941E0,-4.025401E0,1.6532799E1,-2.7994928E0,-1.4480642E1,1.2537871E1,5.6822143E0,6.1457286E0,7.980268E-1,-6.7668447E0,4.541368E-2,2.013952E0,-5.854902E0,1.2405919E1,3.6671126E0,-9.0966105E-2,-4.3764853E0,-2.6326997E0,-8.305927E0,8.668049E0,-1.2582618E0,1.2245991E0,1.4490999E1,5.232799E0,-1.9819517E0,-1.8081796E0,-6.7589674E0,-6.2149734E0,-1.7047453E-1,-9.254082E0,-4.404787E0,-9.672964E0,-2.234111E0,6.0245996E0,-1.325401E0,-8.808095E0,-3.1461835E0],"split_indices":[0,2,1,1,1,3,3,2,2,3,3,2,0,2,2,3,3,3,2,2,0,0,3,0,3,2,3,1,0,1,0,0,3,1,3,1,1,1,2,3,3,0,3,0,2,0,3,2,3,0,1,1,0,2,2,2,3,0,1,1,0,1,0,0,0,0,0,0,0,0,0,0,0,0,0,0,0,0,0,0,0,0,0,0,0,0,0,0,0,0,0,0,0,0,0,0,0,0,0,0,0,0,0,0,0,0,0,0,0,0,0,0,0,0,0,0,0,0,0,0,0,0,0,0,0],"split_type":[0,0,0,0,0,0,0,0,0,0,0,0,0,0,0,0,0,0,0,0,0,0,0,0,0,0,0,0,0,0,0,0,0,0,0,0,0,0,0,0,0,0,0,0,0,0,0,0,0,0,0,0,0,0,0,0,0,0,0,0,0,0,0,0,0,0,0,0,0,0,0,0,0,0,0,0,0,0,0,0,0,0,0,0,0,0,0,0,0,0,0,0,0,0,0,0,0,0,0,0,0,0,0,0,0,0,0,0,0,0,0,0,0,0,0,0,0,0,0,0,0,0,0,0,0],"sum_hessian":[2.683E3,1.142E3,1.541E3,6.26E2,5.16E2,7.77E2,7.64E2,5.34E2,9.2E1,3.98E2,1.18E2,2.8E2,4.97E2,1.82E2,5.82E2,2.59E2,2.75E2,3.9E1,5.3E1,1.68E2,2.3E2,3.5E1,8.3E1,1.53E2,1.27E2,1.53E2,3.44E2,1.5E1,1.67E2,3.38E2,2.44E2,1.59E2,1E2,1.04E2,1.71E2,3.1E1,8E0,3.4E1,1.9E1,1.49E2,1.9E1,1.06E2,1.24E2,1.2E1,2.3E1,3E0,8E1,7E1,8.3E1,3.9E1,8.8E1,2.7E1,1.26E2,3.18E2,2.6E1,6E0,9E0,1.29E2,3.8E1,2.01E2,1.37E2,2E0,2.42E2,1.32E2,2.7E1,9E1,1E1,8E1,2.4E1,1.38E2,3.3E1,1.2E1,1.9E1,4E0,4E0,5E0,2.9E1,9E0,1E1,6.5E1,8.4E1,1.4E1,5E0,3.1E1,7.5E1,1.16E2,8E0,1E0,2.2E1,1E0,2E0,7.6E1,4E0,2.1E1,4.9E1,4.2E1,4.1E1,2.7E1,1.2E1,7.7E1,1.1E1,1.4E1,1.3E1,5.5E1,7.1E1,4.6E1,2.72E2,7E0,1.9E1,1E0,5E0,2E0,7E0,2.6E1,1.03E2,6E0,3.2E1,1.4E1,1.87E2,1.05E2,3.2E1,1E0,1E0,2.32E2,1E1],"tree_param":{"num_deleted":"0","num_feature":"4","num_nodes":"125","size_leaf_vector":"1"}},{"base_weights":[3.2118093E-2,1.34097395E1,-9.884E0,2.264913E1,-8.1710553E-1,-4.190607E0,-1.4417904E1,3.2210835E1,1.6761944E1,2.944638E0,-1.8843708E1,8.003888E0,-1.1217338E1,-7.0829334E0,-1.6089125E1,3.7596195E1,2.2607058E1,7.154647E0,2.293171E1,-3.20027E1,3.7959533E0,-2.8277782E1,-1.0507186E1,1.4331051E1,-2.3666632E-1,-2.1844218E0,-1.7830374E1,4.5209356E-2,-1.2706748E1,-9.507017E0,-1.750842E1,3.874706E1,1.3086948E1,2.7530138E1,1.0113973E1,1.3976826E1,-6.615231E0,3.3550858E1,1.708438E1,-3.443623E1,-1.8801694E0,1.1363779E1,-5.726503E-1,-1.254325E1,-2.2917953E1,8.5764694E-1,-2.9738945E1,1.3520288E1,1.3343444E1,-1.3491913E1,1.0082021E0,1.2461437E1,-7.552867E0,-1.8730438E1,1.6219076E1,8.452116E0,-1.515363E1,1.0002137E1,-1.4742463E1,-6.502918E0,-2.2003483E1,-2.5712471E1,-1.5547668E1,8.934416E0,1.2811528E1,-3.1776154E0,8.007537E0,2.2282147E0,1.0675129E1,7.083435E-1,9.051001E0,1.0131569E1,2.8217497E0,-9.169417E0,-9.5950073E-1,6.2529216E0,1.1635452E1,6.2878814E0,-1.6000774E0,-1.1098088E1,-2.4801693E0,1.7107847E0,6.8441486E0,2.5204223E-1,-8.748516E0,1.9075402E0,-7.2713294E0,-4.2951035E0,1.6940892E0,-6.6917768E0,-1.1522899E1,4.6223083E0,9.942487E-1,-2.8806949E0,1.2959496E0,6.5961337E0,-1.9846947E-1,4.460952E-1,-3.4409788E0,1.715107E0,-5.9060946E0,1.1844513E0,6.1013417E0,7.99295E0,1.0327721E0,-8.33911E0,5.7402825E-1,4.0477853E0,-2.1646833E0,-1.00760885E-1,-4.9470234E0,-2.4696736E0,1.8307813E0,4.561357E0,-8.412881E0,-3.0682652E0,-9.059797E0,-1.8760309E0,-5.3193007E0],"categories":[],"categories_nodes":[],"categories_segments":[],"categories_sizes":[],"default_left":[0,0,0,0,0,0,0,0,0,0,0,0,0,0,0,0,0,0,0,0,0,0,0,0,0,0,0,0,0,0,0,0,0,0,0,0,0,0,0,0,0,0,0,0,0,0,0,0,0,0,0,0,0,0,0,0,0,0,0,0,0,0,0,0,0,0,0,0,0,0,0,0,0,0,0,0,0,0,0,0,0,0,0,0,0,0,0,0,0,0,0,0,0,0,0,0,0,0,0,0,0,0,0,0,0,0,0,0,0,0,0,0,0,0,0,0,0,0,0],"id":1,"left_children":[1,3,5,7,9,11,13,15,17,19,21,23,25,27,29,31,33,35,37,39,41,43,45,47,49,51,53,55,57,59,61,63,65,67,69,71,73,75,77,79,-1,81,83,-1,85,87,89,-1,91,-1,93,95,97,99,101,103,105,107,109,111,113,115,117,-1,-1,-1,-1,-1,-1,-1,-1,-1,-1,-1,-1,-1,-1,-1,-1,-1,-1,-1,-1,-1,-1,-1,-1,-1,-1,-1,-1,-1,-1,-1,-1,-1,-1,-1,-1,-1,-1,-1,-1,-1,-1,-1,-1,-1,-1,-1,-1,-1,-1,-1,-1,-1,-1,-1,-1],"loss_changes":[3.5617603E5,1.5026288E5,3.9743703E4,3.8470125E4,3.0638453E4,5.878568E4,1.0403703E4,1.2752344E4,2.5383352E4,1.1248432E4,5.837377E3,1.3090364E4,2.594577E4,6.4546387E3,6.3542344E3,4.2034688E3,5.687492E3,1.6062357E4,1.5695344E4,3.4783203E2,1.2106771E4,1.6530352E3,9.423832E3,3.7091445E3,6.171341E3,1.4639835E4,7.996117E3,9.327896E3,4.30805E3,4.5870312E3,8.817578E3,4.3705156E3,3.182062E3,1.0906816E4,4.438001E3,9.997426E3,4.566719E3,5.3107344E3,1.4967363E4,2.2956055E2,0E0,8.555861E3,9.435459E3,0E0,1.2360166E3,2.1157825E3,1.7443066E2,0E0,2.8266445E3,0E0,3.836396E3,6.264819E3,4.832768E3,5.841883E3,2.7348657E2,4.191334E3,5.663616E3,5.7814325E2,2.084168E3,2.2955444E3,5.8195654E3,7.264289E3,9.325086E3,0E0,0E0,0E0,0E0,0E0,0E0,0E0,0E0,0E0,0E0,0E0,0E0,0E0,0E0,0E0,0E0,0E0,0E0,0E0,0E0,0E0,0E0,0E0,0E0,0E0,0E0,0E0,0E0,0E0,0E0,0E0,0E0,0E0,0E0,0E0,0E0,0E0,0E0,0E0,0E0,0E0,0E0,0E0,0E0,0E0,0E0,0E0,0E0,0E0,0E0,0E0,0E0,0E0,0E0,0E0,0E0],"parents":[2147483647,0,0,1,1,2,2,3,3,4,4,5,5,6,6,7,7,8,8,9,9,10,10,11,11,12,12,13,13,14,14,15,15,16,16,17,17,18,18,19,19,20,20,21,21,22,22,23,23,24,24,25,25,26,26,27,27,28,28,29,29,30,30,31,31,32,32,33,33,34,34,35,35,36,36,37,37,38,38,39,39,41,41,42,42,44,44,45,45,46,46,48,48,50,50,51,51,52,52,53,53,54,54,55,55,56,56,57,57,58,58,59,59,60,60,61,61,62,62],"right_children":[2,4,6,8,10,12,14,16,18,20,22,24,26,28,30,32,34,36,38,40,42,44,46,48,50,52,54,56,58,60,62,64,66,68,70,72,74,76,78,80,-1,82,84,-1,86,88,90,-1,92,-1,94,96,98,100,102,104,106,108,110,112,114,116,118,-1,-1,-1,-1,-1,-1,-1,-1,-1,-1,-1,-1,-1,-1,-1,-1,-1,-1,-1,-1,-1,-1,-1,-1,-1,-1,-1,-1,-1,-1,-1,-1,-1,-1,-1,-1,-1,-1,-1,-1,-1,-1,-1,-1,-1,-1,-1,-1,-1,-1,-1,-1,-1,-1,-1,-1],"split_conditions":[2.3452002E1,1.57908325E1,1.2E0,1.127553E1,7.1999993E0,1.397406E2,1.0739833E1,4E-1,5.927092E1,4.4555283E0,3.162994E1,1.4113652E1,2.8637415E1,6.3E0,2.5489496E1,2.2464499E1,2.0291582E1,4E-1,1.957075E1,2.2412415E1,1E-1,1.3406166E1,1.08933266E2,2.4470155E0,1.424163E1,1.3324863E1,3.1601205E2,1.5185422E2,7.92E0,2.42E1,2.6495752E1,6.3038357E1,1.1836615E2,1.6572834E1,1.2569235E2,1.2287555E1,1.3604084E1,1.1450054E2,1.6837454E2,2.0633371E1,-1.8801694E0,3.6526257E1,1.6511205E2,-1.254325E1,7.9999995E0,9.500001E0,3.457031E2,1.3520288E1,1.2984183E2,-1.3491913E1,2.4787415E1,2.7497833E1,2.483117E1,8.647496E0,1.2682018E1,8.39657E0,3.1601205E2,1.1450054E2,3.6526257E1,1.4700001E1,1.4418369E1,6.0999994E0,9.458252E1,8.934416E0,1.2811528E1,-3.1776154E0,8.007537E0,2.2282147E0,1.0675129E1,7.083435E-1,9.051001E0,1.0131569E1,2.8217497E0,-9.169417E0,-9.5950073E-1,6.2529216E0,1.1635452E1,6.2878814E0,-1.6000774E0,-1.1098088E1,-2.4801693E0,1.7107847E0,6.8441486E0,2.5204223E-1,-8.748516E0,1.9075402E0,-7.2713294E0,-4.2951035E0,1.6940892E0,-6.6917768E0,-1.1522899E1,4.6223083E0,9.942487E-1,-2.8806949E0,1.2959496E0,6.5961337E0,-1.9846947E-1,4.460952E-1,-3.4409788E0,1.715107E0,-5.9060946E0,1.1844513E0,6.1013417E0,7.99295E0,1.0327721E0,-8.33911E0,5.7402825E-1,4.0477853E0,-2.1646833E0,-1.00760885E-1,-4.9470234E0,-2.4696736E0,1.8307813E0,4.561357E0,-8.412881E0,-3.0682652E0,-9.059797E0,-1.8760309E0,-5.3193007E0],"split_indices":[0,2,1,2,1,3,2,1,3,3,3,2,0,1,0,0,0,1,0,0,1,0,3,3,2,2,3,3,2,1,0,3,3,0,3,2,0,3,3,2,0,3,3,0,1,1,3,0,3,0,0,0,0,2,2,2,3,3,3,1,3,1,3,0,0,0,0,0,0,0,0,0,0,0,0,0,0,0,0,0,0,0,0,0,0,0,0,0,0,0,0,0,0,0,0,0,0,0,0,0,0,0,0,0,0,0,0,0,0,0,0,0,0,0,0,0,0,0,0],"split_type":[0,0,0,0,0,0,0,0,0,0,0,0,0,0,0,0,0,0,0,0,0,0,0,0,0,0,0,0,0,0,0,0,0,0,0,0,0,0,0,0,0,0,0,0,0,0,0,0,0,0,0,0,0,0,0,0,0,0,0,0,0,0,0,0,0,0,0,0,0,0,0,0,0,0,0,0,0,0,0,0,0,0,0,0,0,0,0,0,0,0,0,0,0,0,0,0,0,0,0,0,0,0,0,0,0,0,0,0,0,0,0,0,0,0,0,0,0,0,0],"sum_hessian":[2.683E3,1.142E3,1.541E3,6.92E2,4.5E2,6.84E2,8.57E2,2.62E2,4.3E2,3.73E2,7.7E1,2.5E2,4.34E2,1.6E2,6.97E2,1.66E2,9.6E1,1.69E2,2.61E2,8E0,3.65E2,3.5E1,4.2E1,1.41E2,1.09E2,1.84E2,2.5E2,7.1E1,8.9E1,1.25E2,5.72E2,1.58E2,8E0,6.8E1,2.8E1,1.13E2,5.6E1,9.1E1,1.7E2,7E0,1E0,1.33E2,2.32E2,8E0,2.7E1,2.7E1,1.5E1,3E0,1.38E2,2E0,1.07E2,4.9E1,1.35E2,2.44E2,6E0,4.6E1,2.5E1,7E0,8.2E1,1.02E2,2.3E1,1.08E2,4.64E2,5.1E1,1.07E2,3E0,5E0,2E1,4.8E1,2.1E1,7E0,2E1,9.3E1,6E0,5E1,2.8E1,6.3E1,1.45E2,2.5E1,6E0,1E0,9E1,4.3E1,2.22E2,1E1,1E0,2.6E1,6E0,2.1E1,1E1,5E0,1.14E2,2.4E1,2.5E1,8.2E1,2.8E1,2.1E1,4.1E1,9.4E1,9E0,2.35E2,2E0,4E0,9E0,3.7E1,1.4E1,1.1E1,6E0,1E0,9E0,7.3E1,9E1,1.2E1,3E0,2E1,2.5E1,8.3E1,8.9E1,3.75E2],"tree_param":{"num_deleted":"0","num_feature":"4","num_nodes":"119","size_leaf_vector":"1"}},{"base_weights":[2.4478383E-2,9.404768E0,-6.9286313E0,1.5917103E1,-8.082693E-1,-2.468167E-1,-9.253033E0,2.222542E1,1.1134115E1,3.0380907E0,-9.237014E0,6.0169435E0,-9.54366E0,-2.7579398E0,-1.0857862E1,2.6531094E1,1.3855776E1,1.4191383E1,1.0632809E0,-2.572273E0,6.6520796E0,-1.0784142E1,-6.6807466E0,1.1121566E1,5.991183E-1,-1.3692068E1,1.1551848E1,2.1257647E1,-4.9176455E0,-1.1940336E1,1.277683E0,2.7818867E1,1.3743343E1,2.1880203E1,4.4022307E0,6.446186E0,1.7388706E1,-7.7909265E0,7.483372E0,-5.3978944E0,1.19670105E1,5.3942123E1,3.6755679E0,-4.6642995E0,-2.78877E1,1.5531164E1,4.802092E0,-1.944104E1,2.449141E0,1.1046023E1,-1.5131229E1,2.8189623E1,1.067083E-1,2.9999773E1,1.9854605E0,-3.134346E0,-1.5512965E1,-7.680398E0,-1.4630278E1,-2.2546906E0,1.0636504E1,6.414715E0,9.249115E0,2.9567463E0,8.048844E0,4.0715914E0,9.49186E0,-5.427946E0,3.4170566E0,-8.979586E-1,4.074985E0,5.9779716E0,3.2290745E0,-4.6428934E-1,-7.9098153E0,4.5919986E0,-1.7735384E0,-8.1831414E-1,-5.31216E0,5.906575E0,6.8297386E-1,1.0490607E1,2.0914953E1,3.0217783E0,-4.752001E-1,-1.1390545E1,-9.527197E-1,-2.968947E0,-9.235842E0,2.9923646E0,7.0279007E0,-1.0963738E0,2.4041643E0,-1.0572317E1,-3.3257716E0,1.1709408E0,-2.8524225E0,8.2323885E0,3.022152E-1,-2.97339E0,-5.877389E0,5.1138077E0,1.0390486E1,-1.0070515E1,1.2928276E0,9.88553E0,-8.1362575E-1,2.3057122E0,-4.832403E0,-1.433493E-1,-3.345692E0,3.535052E0,-5.6947E0,-1.4939401E0,-3.7917218E0,-3.3083916E0,-4.8199983E0,-4.0956945E0,9.190691E-1,7.2152333E0,6.6343653E-1],"categories":[],"categories_nodes":[],"categories_segments":[],"categories_sizes":[],"default_left":[0,0,0,0,0,0,0,0,0,0,0,0,0,0,0,0,0,0,0,0,0,0,0,0,0,0,0,0,0,0,0,0,0,0,0,0,0,0,0,0,0,0,0,0,0,0,0,0,0,0,0,0,0,0,0,0,0,0,0,0,0,0,0,0,0,0,0,0,0,0,0,0,0,0,0,0,0,0,0,0,0,0,0,0,0,0,0,0,0,0,0,0,0,0,0,0,0,0,0,0,0,0,0,0,0,0,0,0,0,0,0,0,0,0,0,0,0,0,0,0,0],"id":2,"left_children":[1,3,5,7,9,11,13,15,17,19,21,23,25,27,29,31,33,35,37,39,41,-1,43,45,47,49,51,53,55,57,59,61,63,65,67,69,71,73,75,77,79,81,83,85,87,89,91,93,95,97,99,101,103,105,107,109,111,113,115,117,119,-1,-1,-1,-1,-1,-1,-1,-1,-1,-1,-1,-1,-1,-1,-1,-1,-1,-1,-1,-1,-1,-1,-1,-1,-1,-1,-1,-1,-1,-1,-1,-1,-1,-1,-1,-1,-1,-1,-1,-1,-1,-1,-1,-1,-1,-1,-1,-1,-1,-1,-1,-1,-1,-1,-1,-1,-1,-1,-1,-1],"loss_changes":[1.751215E5,7.603462E4,2.394686E4,2.0813016E4,1.4487378E4,2.3292469E4,1.1894555E4,1.0443484E4,1.2269824E4,6.2417793E3,9.318797E3,6.6031094E3,1.4247725E4,1.1930121E4,1.2061352E4,2.8618281E3,7.793043E3,7.4656523E3,5.401715E3,5.035581E3,2.6123734E4,0E0,5.386312E3,3.3529785E3,4.38536E3,4.973426E3,5.138376E3,3.1415557E3,3.9192485E3,9.536094E3,2.5364548E3,2.7910469E3,7.5302637E2,4.1112246E3,7.908727E3,6.1713086E3,3.4172695E3,4.5979946E3,5.854175E3,3.304243E3,1.4516848E3,8.5434375E2,5.9712246E3,5.778908E3,2.6893457E2,2.925004E3,1.4416614E3,9.2943384E2,1.9147697E3,1.2890458E3,2.7858223E3,1.9967773E2,2.5506174E3,1.3447168E3,8.457621E2,3.8499404E3,3.0647236E3,4.3294336E3,2.4875781E3,3.4362905E3,2.3201462E3,0E0,0E0,0E0,0E0,0E0,0E0,0E0,0E0,0E0,0E0,0E0,0E0,0E0,0E0,0E0,0E0,0E0,0E0,0E0,0E0,0E0,0E0,0E0,0E0,0E0,0E0,0E0,0E0,0E0,0E0,0E0,0E0,0E0,0E0,0E0,0E0,0E0,0E0,0E0,0E0,0E0,0E0,0E0,0E0,0E0,0E0,0E0,0E0,0E0,0E0,0E0,0E0,0E0,0E0,0E0,0E0,0E0,0E0,0E0,0E0],"parents":[2147483647,0,0,1,1,2,2,3,3,4,4,5,5,6,6,7,7,8,8,9,9,10,10,11,11,12,12,13,13,14,14,15,15,16,16,17,17,18,18,19,19,20,20,22,22,23,23,24,24,25,25,26,26,27,27,28,28,29,29,30,30,31,31,32,32,33,33,34,34,35,35,36,36,37,37,38,38,39,39,40,40,41,41,42,42,43,43,44,44,45,45,46,46,47,47,48,48,49,49,50,50,51,51,52,52,53,53,54,54,55,55,56,56,57,57,58,58,59,59,60,60],"right_children":[2,4,6,8,10,12,14,16,18,20,22,24,26,28,30,32,34,36,38,40,42,-1,44,46,48,50,52,54,56,58,60,62,64,66,68,70,72,74,76,78,80,82,84,86,88,90,92,94,96,98,100,102,104,106,108,110,112,114,116,118,120,-1,-1,-1,-1,-1,-1,-1,-1,-1,-1,-1,-1,-1,-1,-1,-1,-1,-1,-1,-1,-1,-1,-1,-1,-1,-1,-1,-1,-1,-1,-1,-1,-1,-1,-1,-1,-1,-1,-1,-1,-1,-1,-1,-1,-1,-1,-1,-1,-1,-1,-1,-1,-1,-1,-1,-1,-1,-1,-1,-1],"split_conditions":[2.3452002E1,1.5827721E1,2E-1,1.1609651E1,2.9999998E0,1.5600449E2,2.5489496E1,5E-1,1.0000001E0,1.8016582E1,1.3406166E1,1.4113652E1,2.2950616E2,9.983106E0,3.2412277E2,2.194783E1,9.826088E0,3.386725E1,5.2534004E1,4.5412155E1,1.8683249E1,-1.0784142E1,3.1601205E2,1.2387085E2,1.4386494E1,2.4972832E1,2.720408E1,3.9000003E0,2.2599998E1,1.27279215E1,1.5799999E1,6.3038357E1,1E-1,6.1363228E1,1.6572834E1,1.5466E1,1.4436574E2,2.0120749E1,1.6144266E2,1.6878498E1,1.3698158E2,3.7193676E1,2.130825E1,9.8383045E0,1.7066586E1,2.68645E1,1.0587918E1,4.7910896E1,2.0211363E1,1.2682018E1,1.7064708E2,2.6164503E1,2.7416582E1,2.5202003E1,3.2083948E2,2.0418695E1,1.4418369E1,1.2E1,1.1892636E2,2.7160337E1,2.3500002E1,6.414715E0,9.249115E0,2.9567463E0,8.048844E0,4.0715914E0,9.49186E0,-5.427946E0,3.4170566E0,-8.979586E-1,4.074985E0,5.9779716E0,3.2290745E0,-4.6428934E-1,-7.9098153E0,4.5919986E0,-1.7735384E0,-8.1831414E-1,-5.31216E0,5.906575E0,6.8297386E-1,1.0490607E1,2.0914953E1,3.0217783E0,-4.752001E-1,-1.1390545E1,-9.527197E-1,-2.968947E0,-9.235842E0,2.9923646E0,7.0279007E0,-1.0963738E0,2.4041643E0,-1.0572317E1,-3.3257716E0,1.1709408E0,-2.8524225E0,8.2323885E0,3.022152E-1,-2.97339E0,-5.877389E0,5.1138077E0,1.0390486E1,-1.0070515E1,1.2928276E0,9.88553E0,-8.1362575E-1,2.3057122E0,-4.832403E0,-1.433493E-1,-3.345692E0,3.535052E0,-5.6947E0,-1.4939401E0,-3.7917218E0,-3.3083916E0,-4.8199983E0,-4.0956945E0,9.190691E-1,7.2152333E0,6.6343653E-1],"split_indices":[0,2,1,2,1,3,0,1,1,0,0,2,3,2,3,0,2,3,3,3,0,0,3,3,2,0,0,1,1,2,1,3,1,3,0,0,3,0,3,0,3,3,0,3,0,0,2,3,2,2,3,0,0,0,3,2,3,1,3,0,1,0,0,0,0,0,0,0,0,0,0,0,0,0,0,0,0,0,0,0,0,0,0,0,0,0,0,0,0,0,0,0,0,0,0,0,0,0,0,0,0,0,0,0,0,0,0,0,0,0,0,0,0,0,0,0,0,0,0,0,0],"split_type":[0,0,0,0,0,0,0,0,0,0,0,0,0,0,0,0,0,0,0,0,0,0,0,0,0,0,0,0,0,0,0,0,0,0,0,0,0,0,0,0,0,0,0,0,0,0,0,0,0,0,0,0,0,0,0,0,0,0,0,0,0,0,0,0,0,0,0,0,0,0,0,0,0,0,0,0,0,0,0,0,0,0,0,0,0,0,0,0,0,0,0,0,0,0,0,0,0,0,0,0,0,0,0,0,0,0,0,0,0,0,0,0,0,0,0,0,0,0,0,0,0],"sum_hessian":[2.683E3,1.142E3,1.541E3,6.97E2,4.45E2,3.98E2,1.143E3,2.99E2,3.98E2,3.06E2,1.39E2,2.38E2,1.6E2,2.27E2,9.16E2,1.96E2,1.03E2,3.05E2,9.3E1,1.2E2,1.86E2,1.1E1,1.28E2,1.22E2,1.16E2,1.34E2,2.6E1,1.8E1,2.09E2,8.41E2,7.5E1,1.77E2,1.9E1,5.5E1,4.8E1,9E1,2.15E2,3.9E1,5.4E1,1.01E2,1.9E1,1E1,1.76E2,1.18E2,1E1,7.1E1,5.1E1,9E0,1.07E2,7E0,1.27E2,1E1,1.6E1,1.2E1,6E0,1.8E2,2.9E1,3.27E2,5.14E2,5.5E1,2E1,5.9E1,1.18E2,1.6E1,3E0,3.1E1,2.4E1,1.1E1,3.7E1,3.9E1,5.1E1,1.54E2,6.1E1,3E1,9E0,3.4E1,2E1,8.4E1,1.7E1,1E1,9E0,6E0,4E0,7.9E1,9.7E1,4E0,1.14E2,2E0,8E0,4.3E1,2.8E1,1.4E1,3.7E1,2E0,7E0,9.6E1,1.1E1,2E0,5E0,6E1,6.7E1,5E0,5E0,1E0,1.5E1,1.1E1,1E0,5E0,1E0,1.36E2,4.4E1,3E0,2.6E1,2.13E2,1.14E2,1.49E2,3.65E2,1.7E1,3.8E1,7E0,1.3E1],"tree_param":{"num_deleted":"0","num_feature":"4","num_nodes":"121","size_leaf_vector":"1"}},{"base_weights":[3.1469118E-2,7.7986765E0,-4.180062E0,1.661862E1,3.9590673E0,1.3166046E0,-6.114306E0,1.8308071E1,2.1309297E0,7.778928E0,-3.393935E0,6.501488E0,-5.6657214E0,-2.5140176E0,-7.6579213E0,1.5309944E1,2.3064693E1,7.5100985E0,-1.1852605E1,2.3552153E0,1.4930274E1,-2.8872547E1,-7.801253E-1,1.1478142E1,1.9826005E0,6.2235796E-1,-1.0784275E1,6.291678E-1,-9.054841E0,-8.441237E0,9.562482E-1,1.6688545E1,-4.8809724E0,3.825917E1,2.0257702E1,7.057335E-1,3.1864666E1,-3.3185425E0,-1.8016148E1,4.8214073E0,-6.386539E0,1.7880741E1,5.4977403E0,7.648865E-1,-3.0571136E1,1.714265E0,-2.070133E1,9.2550955E0,1.758018E1,-5.39423E0,5.0485945E0,7.817898E0,-3.428162E0,-1.2211993E1,4.7860718E-1,3.0924053E0,-5.703863E0,-8.308303E0,-8.924157E0,-3.8047378E0,-9.91647E0,1.0639392E1,-1.21074E0,9.54418E0,4.614276E0,-7.592129E0,3.1219194E0,1.2299178E1,3.996071E-1,6.253376E0,-4.2680593E0,3.2113085E0,-2.8090403E0,3.8778993E-1,1.1755356E1,-2.9191897E0,1.2599183E0,-6.1927648E0,-1.1265817E0,3.784801E-2,2.4993396E0,2.885941E0,-3.3231428E0,4.7295246E0,1.4218144E1,3.359926E0,-5.8728315E-2,-1.0511755E1,-5.846753E0,-3.7882392E0,1.278332E0,8.565236E0,-7.271348E0,7.1858616E0,2.276993E0,6.9839025E0,-1.8302478E0,5.6945103E-1,-4.18139E0,1.1628853E1,9.6047264E-1,3.027477E0,-3.1862528E0,-3.142917E0,9.793365E-1,-4.7557526E0,-1.9734339E0,-2.9262004E0,1.8330634E0,3.046359E-2,3.4394348E0,-2.8440561E0,1.4485586E-1,-7.239397E0,-2.1871846E0,2.602013E-1,-4.0123196E0,-1.4121164E0,-3.287195E0,-1.7290101E0,8.359647E0,-1.8375818E0,2.2807767E0],"categories":[],"categories_nodes":[],"categories_segments":[],"categories_sizes":[],"default_left":[0,0,0,0,0,0,0,0,0,0,0,0,0,0,0,0,0,0,0,0,0,0,0,0,0,0,0,0,0,0,0,0,0,0,0,0,0,0,0,0,0,0,0,0,0,0,0,0,0,0,0,0,0,0,0,0,0,0,0,0,0,0,0,0,0,0,0,0,0,0,0,0,0,0,0,0,0,0,0,0,0,0,0,0,0,0,0,0,0,0,0,0,0,0,0,0,0,0,0,0,0,0,0,0,0,0,0,0,0,0,0,0,0,0,0,0,0,0,0,0,0,0,0],"id":3,"left_children":[1,3,5,7,9,11,13,15,17,19,21,23,25,27,29,31,33,35,37,39,41,43,45,47,49,51,53,55,57,59,61,63,65,67,69,71,73,75,77,79,81,83,85,-1,87,89,91,93,95,97,99,101,103,105,107,109,111,113,-1,115,117,119,121,-1,-1,-1,-1,-1,-1,-1,-1,-1,-1,-1,-1,-1,-1,-1,-1,-1,-1,-1,-1,-1,-1,-1,-1,-1,-1,-1,-1,-1,-1,-1,-1,-1,-1,-1,-1,-1,-1,-1,-1,-1,-1,-1,-1,-1,-1,-1,-1,-1,-1,-1,-1,-1,-1,-1,-1,-1,-1,-1,-1],"loss_changes":[8.783116E4,3.190289E4,1.8518176E4,6.9611953E3,1.8536027E4,1.6472793E4,7.138758E3,3.2976875E3,2.4208281E3,1.6798324E4,1.5028227E4,5.8468555E3,6.2507705E3,7.9825967E3,6.087676E3,4.53509E3,3.3620898E3,3.7890112E3,4.1361304E2,5.377386E3,5.1059766E3,1.1987852E3,1.0271887E4,1.5193682E3,3.148423E3,2.5916208E3,1.7264287E3,4.1203755E3,1.6992539E3,5.612039E3,1.6076091E3,2.4774297E3,3.6982346E3,1.3609258E3,1.996582E3,2.0131155E3,1.0682627E3,2.8190506E2,1.0975549E2,3.195879E3,4.2359263E3,8.119258E3,1.4955554E3,0E0,3.0741016E2,6.7746104E3,4.6981465E3,2.0942368E3,4.4610576E3,2.580934E3,5.978444E3,1.4487495E3,2.7229514E3,1.8441914E3,8.0873694E2,4.756551E3,1.7334431E3,1.8047236E3,0E0,8.998345E3,3.3427227E3,4.116376E3,2.7753118E3,0E0,0E0,0E0,0E0,0E0,0E0,0E0,0E0,0E0,0E0,0E0,0E0,0E0,0E0,0E0,0E0,0E0,0E0,0E0,0E0,0E0,0E0,0E0,0E0,0E0,0E0,0E0,0E0,0E0,0E0,0E0,0E0,0E0,0E0,0E0,0E0,0E0,0E0,0E0,0E0,0E0,0E0,0E0,0E0,0E0,0E0,0E0,0E0,0E0,0E0,0E0,0E0,0E0,0E0,0E0,0E0,0E0,0E0,0E0,0E0],"parents":[2147483647,0,0,1,1,2,2,3,3,4,4,5,5,6,6,7,7,8,8,9,9,10,10,11,11,12,12,13,13,14,14,15,15,16,16,17,17,18,18,19,19,20,20,21,21,22,22,23,23,24,24,25,25,26,26,27,27,28,28,29,29,30,30,31,31,32,32,33,33,34,34,35,35,36,36,37,37,38,38,39,39,40,40,41,41,42,42,44,44,45,45,46,46,47,47,48,48,49,49,50,50,51,51,52,52,53,53,54,54,55,55,56,56,57,57,59,59,60,60,61,61,62,62],"right_children":[2,4,6,8,10,12,14,16,18,20,22,24,26,28,30,32,34,36,38,40,42,44,46,48,50,52,54,56,58,60,62,64,66,68,70,72,74,76,78,80,82,84,86,-1,88,90,92,94,96,98,100,102,104,106,108,110,112,114,-1,116,118,120,122,-1,-1,-1,-1,-1,-1,-1,-1,-1,-1,-1,-1,-1,-1,-1,-1,-1,-1,-1,-1,-1,-1,-1,-1,-1,-1,-1,-1,-1,-1,-1,-1,-1,-1,-1,-1,-1,-1,-1,-1,-1,-1,-1,-1,-1,-1,-1,-1,-1,-1,-1,-1,-1,-1,-1,-1,-1,-1,-1,-1],"split_conditions":[2.194783E1,1.1923557E1,2E-1,2.6E0,1.1000001E0,2.8585333E1,2.5597837E1,1.2387085E2,2.0018667E1,9.638409E1,1.3406166E1,1.3493999E1,1.6206519E2,1.9137648E1,3.2412277E2,1.19460495E2,1.27821236E2,1.94145E1,1.0195057E1,1E-1,1.535724E2,1.0542333E1,3.2083948E2,1.2397806E1,3.1161812E1,1.4113652E1,2.2950616E2,5.4E0,8.850001E1,9.458252E1,1.1000001E0,6.9247384E0,1.2058772E2,1.1480557E1,3.5833408E2,9.726665E0,9.36E0,9.36E0,1.7E1,1.5466E1,1.3604084E1,1.5120612E2,1.405845E1,7.648865E-1,7.7E0,1.5870751E1,1.48270035E1,1.3344514E1,2.7459747E1,1.9847755E1,3.7777573E1,1E-1,1.6870138E1,1.6055355E1,2.8916582E1,2.4787415E1,1.5827721E1,1.6282042E1,-8.924157E0,2.2100002E1,1.0739833E1,7E-1,1.42E1,9.54418E0,4.614276E0,-7.592129E0,3.1219194E0,1.2299178E1,3.996071E-1,6.253376E0,-4.2680593E0,3.2113085E0,-2.8090403E0,3.8778993E-1,1.1755356E1,-2.9191897E0,1.2599183E0,-6.1927648E0,-1.1265817E0,3.784801E-2,2.4993396E0,2.885941E0,-3.3231428E0,4.7295246E0,1.4218144E1,3.359926E0,-5.8728315E-2,-1.0511755E1,-5.846753E0,-3.7882392E0,1.278332E0,8.565236E0,-7.271348E0,7.1858616E0,2.276993E0,6.9839025E0,-1.8302478E0,5.6945103E-1,-4.18139E0,1.1628853E1,9.6047264E-1,3.027477E0,-3.1862528E0,-3.142917E0,9.793365E-1,-4.7557526E0,-1.9734339E0,-2.9262004E0,1.8330634E0,3.046359E-2,3.4394348E0,-2.8440561E0,1.4485586E-1,-7.239397E0,-2.1871846E0,2.602013E-1,-4.0123196E0,-1.4121164E0,-3.287195E0,-1.7290101E0,8.359647E0,-1.8375818E0,2.2807767E0],"split_indices":[0,2,1,1,1,0,0,3,0,3,0,2,3,2,3,3,3,0,2,1,3,3,3,2,3,2,3,1,1,3,1,2,3,2,3,2,2,2,1,0,0,3,2,0,1,0,0,3,0,3,3,1,2,2,0,0,2,3,0,1,2,1,1,0,0,0,0,0,0,0,0,0,0,0,0,0,0,0,0,0,0,0,0,0,0,0,0,0,0,0,0,0,0,0,0,0,0,0,0,0,0,0,0,0,0,0,0,0,0,0,0,0,0,0,0,0,0,0,0,0,0,0,0],"split_type":[0,0,0,0,0,0,0,0,0,0,0,0,0,0,0,0,0,0,0,0,0,0,0,0,0,0,0,0,0,0,0,0,0,0,0,0,0,0,0,0,0,0,0,0,0,0,0,0,0,0,0,0,0,0,0,0,0,0,0,0,0,0,0,0,0,0,0,0,0,0,0,0,0,0,0,0,0,0,0,0,0,0,0,0,0,0,0,0,0,0,0,0,0,0,0,0,0,0,0,0,0,0,0,0,0,0,0,0,0,0,0,0,0,0,0,0,0,0,0,0,0,0,0],"sum_hessian":[2.683E3,9.43E2,1.74E3,2.85E2,6.58E2,4.53E2,1.287E3,2.55E2,3E1,4.33E2,2.25E2,2.6E2,1.93E2,3.87E2,9E2,1.59E2,9.6E1,2.2E1,8E0,2.47E2,1.86E2,2E1,2.05E2,1.23E2,1.37E2,8.7E1,1.06E2,2.62E2,1.25E2,8.25E2,7.5E1,1.49E2,1E1,1.3E1,8.3E1,1.8E1,4E0,4E0,4E0,1.93E2,5.4E1,1.41E2,4.5E1,1E0,1.9E1,1.83E2,2.2E1,9.2E1,3.1E1,4E1,9.7E1,3.1E1,5.6E1,9.4E1,1.2E1,1.89E2,7.3E1,1.22E2,3E0,2E2,6.25E2,1.3E1,6.2E1,1E1,1.39E2,4E0,6E0,1.2E1,1E0,8.2E1,1E0,9E0,9E0,1E0,3E0,2E0,2E0,3E0,1E0,8.3E1,1.1E2,1.2E1,4.2E1,1.33E2,8E0,2.2E1,2.3E1,1.2E1,7E0,2.7E1,1.56E2,1E0,2.1E1,8E0,8.4E1,2.5E1,6E0,2.2E1,1.8E1,4E0,9.3E1,2.8E1,3E0,2.7E1,2.9E1,5.6E1,3.8E1,4E0,8E0,1.4E2,4.9E1,4.5E1,2.8E1,6E0,1.16E2,1.35E2,6.5E1,1.05E2,5.2E2,7E0,6E0,4E1,2.2E1],"tree_param":{"num_deleted":"0","num_feature":"4","num_nodes":"123","size_leaf_vector":"1"}},{"base_weights":[3.3194605E-2,4.707648E0,-3.5441208E0,1.0741555E1,1.4493358E0,-1.3846822E0,-5.6875935E0,1.2237262E1,7.0975494E-1,-3.2080681E0,4.17449E0,2.2160656E0,-4.851592E0,-5.923738E0,7.369259E0,1.2504845E1,-6.998212E0,-1.1846339E1,4.979891E0,1.2046913E0,-8.236357E0,6.3427362E0,-6.2206903E0,6.9828076E0,-1.9869288E0,-7.495805E0,1.4677261E0,-4.5918283E0,-8.537623E0,9.674793E0,5.3514165E-1,2.104004E1,1.1646962E1,7.3876305E0,-1.776357E1,1.388734E1,-1.2763703E0,-2.7126378E-1,1.8200779E1,9.598238E-1,-1.1731329E1,1.2470161E1,3.4370856E0,5.905638E0,-1.0423247E1,6.167091E0,1.2093878E1,1.3112224E1,-3.4693344E0,1.3144977E1,-8.412574E0,1.7076832E1,1.4109367E-1,-9.602917E-1,-7.141782E0,2.5577665E1,-9.331769E0,6.8581686E0,-4.1476364E0,4.983232E0,7.768535E0,2.2577739E0,4.087599E0,-5.4727273E0,6.603537E0,1.1555344E0,-6.8984876E0,2.2862628E0,7.231714E0,-2.6935813E0,1.6250143E0,1.6990155E0,-7.9272324E-1,1.3323883E0,8.218354E0,-1.1262532E0,1.2236665E1,-9.514127E0,-3.080646E0,2.0636241E0,5.7648396E0,6.9082785E-1,7.2043715E0,7.497664E0,8.271637E-2,-1.9807174E0,-6.586531E0,1.443031E-2,2.6454759E0,-7.255545E0,5.018653E0,3.6469895E-1,-1.8628277E0,5.6182137E0,-2.9534075E0,9.0861124E-1,-2.857887E0,2.5075085E0,1.3023689E1,1.5494679E0,-1.1640891E0,4.7503516E-1,-1.0783122E0,-2.3906548E0,1.781006E0,-2.2617383E0,1.0112655E1,-3.8356292E0,-2.289487E0,4.32057E-1,5.1642194E0],"categories":[],"categories_nodes":[],"categories_segments":[],"categories_sizes":[],"default_left":[0,0,0,0,0,0,0,0,0,0,0,0,0,0,0,0,0,0,0,0,0,0,0,0,0,0,0,0,0,0,0,0,0,0,0,0,0,0,0,0,0,0,0,0,0,0,0,0,0,0,0,0,0,0,0,0,0,0,0,0,0,0,0,0,0,0,0,0,0,0,0,0,0,0,0,0,0,0,0,0,0,0,0,0,0,0,0,0,0,0,0,0,0,0,0,0,0,0,0,0,0,0,0,0,0,0,0,0,0,0,0],"id":4,"left_children":[1,3,5,7,9,11,13,15,17,19,21,23,25,27,29,31,-1,33,35,37,39,41,43,45,47,49,51,53,55,-1,57,59,61,63,65,67,69,71,73,75,77,79,81,83,85,87,-1,89,91,93,95,97,99,101,103,105,107,109,-1,-1,-1,-1,-1,-1,-1,-1,-1,-1,-1,-1,-1,-1,-1,-1,-1,-1,-1,-1,-1,-1,-1,-1,-1,-1,-1,-1,-1,-1,-1,-1,-1,-1,-1,-1,-1,-1,-1,-1,-1,-1,-1,-1,-1,-1,-1,-1,-1,-1,-1,-1,-1],"loss_changes":[4.489851E4,2.2869088E4,7.032375E3,6.113199E3,9.621346E3,9.485705E3,2.396211E3,3.6700547E3,2.9542695E3,6.2227393E3,1.0813247E4,7.4867754E3,6.477625E3,2.5718906E3,2.3632065E3,2.3396797E3,0E0,1.7245964E3,2.3025457E3,3.7677566E3,4.2216514E3,7.007582E3,4.291367E3,4.5092754E3,4.4997207E3,5.2765176E3,2.3789583E3,4.614007E3,7.066E3,0E0,1.1844465E3,2.365E2,2.5308594E3,1.9008203E3,1.3324324E3,9.0485547E2,1.3374271E3,1.9709625E3,1.3963455E3,7.100034E3,2.450665E3,4.6581973E3,6.2469272E3,2.3571372E3,2.5868599E3,2.7898345E3,0E0,2.8326162E3,2.343941E3,1.7244163E3,3.3673418E3,1.7035889E3,2.1817256E3,1.3926797E3,3.216624E3,1.8698079E3,1.3527441E3,4.8018066E2,0E0,0E0,0E0,0E0,0E0,0E0,0E0,0E0,0E0,0E0,0E0,0E0,0E0,0E0,0E0,0E0,0E0,0E0,0E0,0E0,0E0,0E0,0E0,0E0,0E0,0E0,0E0,0E0,0E0,0E0,0E0,0E0,0E0,0E0,0E0,0E0,0E0,0E0,0E0,0E0,0E0,0E0,0E0,0E0,0E0,0E0,0E0,0E0,0E0,0E0,0E0,0E0,0E0],"parents":[2147483647,0,0,1,1,2,2,3,3,4,4,5,5,6,6,7,7,8,8,9,9,10,10,11,11,12,12,13,13,14,14,15,15,17,17,18,18,19,19,20,20,21,21,22,22,23,23,24,24,25,25,26,26,27,27,28,28,30,30,31,31,32,32,33,33,34,34,35,35,36,36,37,37,38,38,39,39,40,40,41,41,42,42,43,43,44,44,45,45,47,47,48,48,49,49,50,50,51,51,52,52,53,53,54,54,55,55,56,56,57,57],"right_children":[2,4,6,8,10,12,14,16,18,20,22,24,26,28,30,32,-1,34,36,38,40,42,44,46,48,50,52,54,56,-1,58,60,62,64,66,68,70,72,74,76,78,80,82,84,86,88,-1,90,92,94,96,98,100,102,104,106,108,110,-1,-1,-1,-1,-1,-1,-1,-1,-1,-1,-1,-1,-1,-1,-1,-1,-1,-1,-1,-1,-1,-1,-1,-1,-1,-1,-1,-1,-1,-1,-1,-1,-1,-1,-1,-1,-1,-1,-1,-1,-1,-1,-1,-1,-1,-1,-1,-1,-1,-1,-1,-1,-1],"split_conditions":[2.3614502E1,1.2768586E1,1.4264361E1,2.6E0,3.386725E1,2.4E0,3.4967383E2,3.5833408E2,1.793858E1,2E-1,1.5403252E2,2.774367E1,2.8126999E1,1.5253793E2,1.5646544E1,7.69592E0,-6.998212E0,9.726665E0,2.0018667E1,2.2702845E1,1.6516901E1,2E-1,1.8438915E1,2.2999997E0,1.08933266E2,7.69592E0,2.8204084E1,1.3000001E0,2.4018667E1,9.674793E0,2.3500002E1,7.145796E0,6.3038357E1,2.9999998E0,3.3E0,1.94145E1,2.187075E1,1.2372141E1,1.808742E1,1.6055355E1,5E-1,1.3365536E2,1.5120612E2,1.3684735E1,3.478976E2,2.4787415E1,1.2093878E1,2.8027002E1,1E-1,1.4436574E2,3.6526257E1,1.83E1,1.2058772E2,1.4013554E2,2.9799917E1,1.535724E2,1.6055355E1,1.3300001E1,-4.1476364E0,4.983232E0,7.768535E0,2.2577739E0,4.087599E0,-5.4727273E0,6.603537E0,1.1555344E0,-6.8984876E0,2.2862628E0,7.231714E0,-2.6935813E0,1.6250143E0,1.6990155E0,-7.9272324E-1,1.3323883E0,8.218354E0,-1.1262532E0,1.2236665E1,-9.514127E0,-3.080646E0,2.0636241E0,5.7648396E0,6.9082785E-1,7.2043715E0,7.497664E0,8.271637E-2,-1.9807174E0,-6.586531E0,1.443031E-2,2.6454759E0,-7.255545E0,5.018653E0,3.6469895E-1,-1.8628277E0,5.6182137E0,-2.9534075E0,9.0861124E-1,-2.857887E0,2.5075085E0,1.3023689E1,1.5494679E0,-1.1640891E0,4.7503516E-1,-1.0783122E0,-2.3906548E0,1.781006E0,-2.2617383E0,1.0112655E1,-3.8356292E0,-2.289487E0,4.32057E-1,5.1642194E0],"split_indices":[0,2,2,1,3,1,3,3,3,1,3,0,0,3,2,2,0,2,0,2,2,1,0,1,3,2,0,1,0,0,1,2,3,1,1,0,0,3,0,2,1,3,3,2,3,0,0,0,1,3,3,1,3,3,0,3,2,1,0,0,0,0,0,0,0,0,0,0,0,0,0,0,0,0,0,0,0,0,0,0,0,0,0,0,0,0,0,0,0,0,0,0,0,0,0,0,0,0,0,0,0,0,0,0,0,0,0,0,0,0,0],"split_type":[0,0,0,0,0,0,0,0,0,0,0,0,0,0,0,0,0,0,0,0,0,0,0,0,0,0,0,0,0,0,0,0,0,0,0,0,0,0,0,0,0,0,0,0,0,0,0,0,0,0,0,0,0,0,0,0,0,0,0,0,0,0,0,0,0,0,0,0,0,0,0,0,0,0,0,0,0,0,0,0,0,0,0,0,0,0,0,0,0,0,0,0,0,0,0,0,0,0,0,0,0,0,0,0,0,0,0,0,0,0,0],"sum_hessian":[2.683E3,1.163E3,1.52E3,4.07E2,7.56E2,7.58E2,7.62E2,3.54E2,5.3E1,2.79E2,4.77E2,3.72E2,3.86E2,7.49E2,1.3E1,3.52E2,2E0,1.3E1,4E1,1.49E2,1.3E2,3.95E2,8.2E1,1.74E2,1.98E2,2.72E2,1.14E2,4.98E2,2.51E2,2E0,1.1E1,3E1,3.22E2,3E0,1E1,1.6E1,2.4E1,1.38E2,1.1E1,3.6E1,9.4E1,1.26E2,2.69E2,2.1E1,6.1E1,1.71E2,3E0,1.7E1,1.81E2,1.1E1,2.61E2,8E0,1.06E2,2.06E2,2.92E2,5E0,2.46E2,8E0,3E0,1.8E1,1.2E1,1.06E2,2.16E2,1E0,2E0,2E0,8E0,1.1E1,5E0,1.1E1,1.3E1,3.9E1,9.9E1,5E0,6E0,3.3E1,3E0,5E0,8.9E1,7E1,5.6E1,2.56E2,1.3E1,4E0,1.7E1,4.7E1,1.4E1,5.2E1,1.19E2,1E0,1.6E1,6.7E1,1.14E2,9E0,2E0,2.3E1,2.38E2,7E0,1E0,4.7E1,5.9E1,1.05E2,1.01E2,2.75E2,1.7E1,1E0,4E0,7.9E1,1.67E2,6E0,2E0],"tree_param":{"num_deleted":"0","num_feature":"4","num_nodes":"111","size_leaf_vector":"1"}},{"base_weights":[5.2645296E-2,4.346273E0,-2.083422E0,6.6029634E0,1.2998061E-1,9.0796834E-1,-3.1468093E0,3.8798282E0,8.619352E0,2.2428463E0,-6.5765796E0,3.2141266E0,-3.9062307E0,2.7676377E0,-3.5962493E0,1.9199015E1,2.8854978E0,1.2182356E1,4.5475636E0,-1.4367E0,6.3951635E0,-1.4489238E1,-2.5688732E0,-2.1485481E0,4.5684786E0,-5.485973E0,8.246611E0,1.4594954E1,5.1542044E-1,-3.0398076E0,-7.2984548E0,2.3355188E1,1.9307404E0,-5.9233365E0,4.353888E0,6.994534E0,1.584162E1,2.2011762E0,9.674272E0,-6.4004064E-1,-7.7321897E0,3.7036285E1,3.028031E0,-7.4750094E0,-9.049854E0,1.183024E0,-1.8069954E1,-9.230678E0,4.185582E0,9.046595E0,1.108897E0,1.69278E1,-6.293419E0,1.2062543E1,-8.124786E0,-3.8201408E0,1.9517073E1,-5.029384E0,4.7230887E0,-9.1559725E0,-2.6420016E0,-1.3363785E1,-5.8694607E-1,1.9713823E0,7.285084E0,-8.349487E-1,2.4108675E0,-2.363672E-1,-5.450886E0,7.264044E-1,4.8830304E0,-1.2133175E-1,3.8452928E0,1.3930833E1,4.432808E0,9.913955E-1,-1.1366951E1,7.1491895E0,1.4847769E0,-3.9267042E-1,5.9259014E0,1.2648629E0,1.1969002E1,1.3346364E0,-6.133663E0,-6.426581E0,-1.5441926E0,-9.6228874E-1,2.7900128E0,-7.6577044E0,2.3505907E0,-4.805543E-1,-6.8866963E0,5.5672717E0,-1.2359095E0,2.3416295E0,7.9115005E0,-4.2489805E0,1.0572748E0,9.525044E-1,5.8716726E0,3.1995385E0,-1.9909078E0,-8.607386E-1,5.3259215E0,-8.360586E0,2.3238091E0,-1.3092301E0,-3.2823944E-1,7.512387E0,3.598163E0,1.2171868E0,-6.215679E0,-7.102589E-1,2.940141E0,-1.5780599E0,-5.1204176E0,1.5187524E-1,-1.0371735E0,-2.78193E0,-6.240666E0,-3.4857965E0,4.2835006E-1],"categories":[],"categories_nodes":[],"categories_segments":[],"categories_sizes":[],"default_left":[0,0,0,0,0,0,0,0,0,0,0,0,0,0,0,0,0,0,0,0,0,0,0,0,0,0,0,0,0,0,0,0,0,0,0,0,0,0,0,0,0,0,0,0,0,0,0,0,0,0,0,0,0,0,0,0,0,0,0,0,0,0,0,0,0,0,0,0,0,0,0,0,0,0,0,0,0,0,0,0,0,0,0,0,0,0,0,0,0,0,0,0,0,0,0,0,0,0,0,0,0,0,0,0,0,0,0,0,0,0,0,0,0,0,0,0,0,0,0,0,0,0,0],"id":5,"left_children":[1,3,5,7,9,11,13,15,17,19,21,23,25,27,29,31,33,35,37,39,41,43,45,47,49,51,53,55,57,59,61,63,65,67,69,71,73,75,77,79,-1,81,83,-1,85,87,89,91,93,95,97,99,101,103,105,107,109,111,113,115,117,119,121,-1,-1,-1,-1,-1,-1,-1,-1,-1,-1,-1,-1,-1,-1,-1,-1,-1,-1,-1,-1,-1,-1,-1,-1,-1,-1,-1,-1,-1,-1,-1,-1,-1,-1,-1,-1,-1,-1,-1,-1,-1,-1,-1,-1,-1,-1,-1,-1,-1,-1,-1,-1,-1,-1,-1,-1,-1,-1,-1,-1],"loss_changes":[2.4625299E4,8.486404E3,5.7064033E3,3.1567695E3,4.4358096E3,5.2417407E3,3.5267373E3,3.737452E3,4.7756953E3,3.645505E3,2.34115E3,2.3266963E3,2.9825894E3,2.49642E3,2.5116895E3,1.0314565E3,3.0654697E3,3.249295E3,1.8672964E3,2.4458442E3,1.1443197E4,1.192481E3,2.987459E3,2.9544792E3,3.9405317E3,2.5678494E3,1.2225039E3,1.434177E3,1.89021E3,2.5816035E3,6.5053584E3,2.7416504E1,1.3748874E2,2.1239485E3,4.614959E3,3.2365603E3,2.6717969E3,4.9473125E3,3.1596187E3,1.7172278E3,0E0,8.644453E2,3.4926821E3,0E0,7.5882166E2,1.5266694E3,2.1314265E3,3.209099E3,4.2541704E3,2.1810176E3,5.3986255E3,1.1970007E2,8.384585E2,1.3254724E3,1.469274E3,1.1564522E0,1.98375E2,5.073865E3,1.6792843E3,1.9137583E3,2.586308E3,2.3630752E3,1.7281312E3,0E0,0E0,0E0,0E0,0E0,0E0,0E0,0E0,0E0,0E0,0E0,0E0,0E0,0E0,0E0,0E0,0E0,0E0,0E0,0E0,0E0,0E0,0E0,0E0,0E0,0E0,0E0,0E0,0E0,0E0,0E0,0E0,0E0,0E0,0E0,0E0,0E0,0E0,0E0,0E0,0E0,0E0,0E0,0E0,0E0,0E0,0E0,0E0,0E0,0E0,0E0,0E0,0E0,0E0,0E0,0E0,0E0,0E0,0E0,0E0],"parents":[2147483647,0,0,1,1,2,2,3,3,4,4,5,5,6,6,7,7,8,8,9,9,10,10,11,11,12,12,13,13,14,14,15,15,16,16,17,17,18,18,19,19,20,20,21,21,22,22,23,23,24,24,25,25,26,26,27,27,28,28,29,29,30,30,31,31,32,32,33,33,34,34,35,35,36,36,37,37,38,38,39,39,41,41,42,42,44,44,45,45,46,46,47,47,48,48,49,49,50,50,51,51,52,52,53,53,54,54,55,55,56,56,57,57,58,58,59,59,60,60,61,61,62,62],"right_children":[2,4,6,8,10,12,14,16,18,20,22,24,26,28,30,32,34,36,38,40,42,44,46,48,50,52,54,56,58,60,62,64,66,68,70,72,74,76,78,80,-1,82,84,-1,86,88,90,92,94,96,98,100,102,104,106,108,110,112,114,116,118,120,122,-1,-1,-1,-1,-1,-1,-1,-1,-1,-1,-1,-1,-1,-1,-1,-1,-1,-1,-1,-1,-1,-1,-1,-1,-1,-1,-1,-1,-1,-1,-1,-1,-1,-1,-1,-1,-1,-1,-1,-1,-1,-1,-1,-1,-1,-1,-1,-1,-1,-1,-1,-1,-1,-1,-1,-1,-1,-1,-1,-1],"split_conditions":[2.1568663E1,1.5827721E1,2E-1,6.3038357E1,3.8000002E0,1.6046323E2,9.504273E0,7.342588E0,1.9327E1,1.8016582E1,2.3767122E1,3.1161812E1,3.3376807E2,2.5147833E1,2.3500002E1,1.8893667E1,1.3206168E1,1.7162416E1,1.3708391E1,1.7962416E1,1.8683249E1,7.7E0,2.0699919E1,2.4304083E1,2.6224915E1,8.0899935E0,1.4386494E1,4.5412155E1,2.7366585E1,3E-1,2.6612417E1,2.4470155E0,1.94145E1,1.4830076E1,1.4693999E1,1.0805998E1,6.896241E1,1.3661038E1,1.4113652E1,2.5284714E1,-7.7321897E0,1.2372141E1,2.5772078E1,-7.4750094E0,1.7974781E1,2.1924562E1,1.9000002E1,2.3614502E1,1.1449314E1,1.98E1,2.68645E1,1.7855588E2,2.194783E1,9.085988E0,1.6299694E1,2.3184748E1,8.825508E0,2.6901995E1,8.28E0,1.6046323E2,9.458252E1,2.5824919E1,2.4650553E1,1.9713823E0,7.285084E0,-8.349487E-1,2.4108675E0,-2.363672E-1,-5.450886E0,7.264044E-1,4.8830304E0,-1.2133175E-1,3.8452928E0,1.3930833E1,4.432808E0,9.913955E-1,-1.1366951E1,7.1491895E0,1.4847769E0,-3.9267042E-1,5.9259014E0,1.2648629E0,1.1969002E1,1.3346364E0,-6.133663E0,-6.426581E0,-1.5441926E0,-9.6228874E-1,2.7900128E0,-7.6577044E0,2.3505907E0,-4.805543E-1,-6.8866963E0,5.5672717E0,-1.2359095E0,2.3416295E0,7.9115005E0,-4.2489805E0,1.0572748E0,9.525044E-1,5.8716726E0,3.1995385E0,-1.9909078E0,-8.607386E-1,5.3259215E0,-8.360586E0,2.3238091E0,-1.3092301E0,-3.2823944E-1,7.512387E0,3.598163E0,1.2171868E0,-6.215679E0,-7.102589E-1,2.940141E0,-1.5780599E0,-5.1204176E0,1.5187524E-1,-1.0371735E0,-2.78193E0,-6.240666E0,-3.4857965E0,4.2835006E-1],"split_indices":[0,2,1,3,1,3,2,2,0,0,3,3,3,0,1,0,0,0,2,0,0,1,0,0,0,2,2,3,0,1,0,3,0,2,2,2,3,2,2,2,0,3,2,0,2,2,1,0,3,2,0,3,0,2,2,0,2,0,2,3,3,0,3,0,0,0,0,0,0,0,0,0,0,0,0,0,0,0,0,0,0,0,0,0,0,0,0,0,0,0,0,0,0,0,0,0,0,0,0,0,0,0,0,0,0,0,0,0,0,0,0,0,0,0,0,0,0,0,0,0,0,0,0],"split_type":[0,0,0,0,0,0,0,0,0,0,0,0,0,0,0,0,0,0,0,0,0,0,0,0,0,0,0,0,0,0,0,0,0,0,0,0,0,0,0,0,0,0,0,0,0,0,0,0,0,0,0,0,0,0,0,0,0,0,0,0,0,0,0,0,0,0,0,0,0,0,0,0,0,0,0,0,0,0,0,0,0,0,0,0,0,0,0,0,0,0,0,0,0,0,0,0,0,0,0,0,0,0,0,0,0,0,0,0,0,0,0,0,0,0,0,0,0,0,0,0,0,0,0],"sum_hessian":[2.683E3,8.91E2,1.792E3,5.8E2,3.11E2,4.7E2,1.322E3,2.48E2,3.32E2,2.37E2,7.4E1,3.18E2,1.52E2,9.3E1,1.229E3,1.4E1,2.34E2,1.76E2,1.56E2,1.26E2,1.11E2,2.4E1,5E1,6.4E1,2.54E2,1.35E2,1.7E1,1.4E1,7.9E1,1.07E3,1.59E2,1.1E1,3E0,3.3E1,2.01E2,7.4E1,1.02E2,1.08E2,4.8E1,1.23E2,3E0,1E1,1.01E2,7E0,1.7E1,4.1E1,9E0,3E1,3.4E1,1.1E2,1.44E2,4E0,1.31E2,1.4E1,3E0,3E0,1.1E1,3.4E1,4.5E1,6.4E1,1.006E3,8.3E1,7.6E1,1E0,1E1,2E0,1E0,2.4E1,9E0,1.74E2,2.7E1,3.3E1,4.1E1,2E0,1E2,1.06E2,2E0,1.1E1,3.7E1,1.2E2,3E0,1E0,9E0,9.6E1,5E0,3E0,1.4E1,2.7E1,1.4E1,7E0,2E0,2E1,1E1,1.2E1,2.2E1,1.04E2,6E0,1.9E1,1.25E2,1E0,3E0,2E0,1.29E2,4E0,1E1,1E0,2E0,2E0,1E0,5E0,6E0,2.2E1,1.2E1,1.9E1,2.6E1,4.4E1,2E1,2.07E2,7.99E2,5.5E1,2.8E1,1.1E1,6.5E1],"tree_param":{"num_deleted":"0","num_feature":"4","num_nodes":"123","size_leaf_vector":"1"}},{"base_weights":[4.278887E-2,2.0995395E0,-2.21485E0,5.531955E0,3.5716885E-1,-2.7540605E0,1.52337E0,6.1009912E0,-4.485748E0,7.9126114E-1,-8.870628E0,-1.4196113E0,-4.825614E0,-8.016269E0,2.8469324E0,5.623783E0,1.7868813E1,-9.042567E0,-1.0918242E0,-1.9110464E1,1.0157527E0,9.791107E0,-1.1092683E1,1.9901072E0,-3.8139281E0,-7.2091866E0,-1.7624818E0,-1.4352268E1,9.159774E0,5.8856E-1,6.1464686E0,6.233505E0,-2.1925378E0,2.6550669E1,7.2015347E0,9.135631E0,-5.008511E0,5.988278E0,-7.7008834E0,-3.5062659E0,1.975831E0,7.2582345E0,-7.8756027E0,1.2113056E0,-1.3910077E1,2.05359E1,1.4433565E0,-2.8963513E0,-8.186959E0,1.988545E1,-7.853828E0,2.548058E0,-6.1444654E0,-2.0611878E-1,-1.9477585E1,-1.119669E0,5.943732E0,3.0284803E0,-9.492792E0,7.6871777E0,-8.487541E0,1.9243196E0,-5.970965E0,3.073835E0,-3.3727396E0,1.0820291E1,4.7342744E0,3.8522825E0,-9.173876E-1,4.6467185E0,-1.3495888E0,2.3678102E0,-2.134337E0,1.3919386E-1,-2.8895867E0,8.351023E-1,-2.2254224E0,-3.5278828E0,-1.6138459E-2,2.9006135E0,-4.832183E0,-7.5921464E0,-3.048748E0,7.6370096E0,-2.0864515E0,-1.8377163E0,8.160405E-1,1.7884392E-1,-1.4372642E0,-3.2741938E0,9.9177086E-1,6.794754E0,9.100216E-1,-2.645194E0,6.414047E-1,-1.1758127E0,1.5573068E0,-2.6765275E0,1.4566002E0,1.8302674E0,-1.9333267E0,-6.331879E0,-2.4297066E0,2.1951044E0,-3.9644578E0,3.656864E0,3.895431E-1,-5.884145E0,-1.4609628E0,9.029479E0,2.0032148E0,2.3587866E0,-3.9990296E0],"categories":[],"categories_nodes":[],"categories_segments":[],"categories_sizes":[],"default_left":[0,0,0,0,0,0,0,0,0,0,0,0,0,0,0,0,0,0,0,0,0,0,0,0,0,0,0,0,0,0,0,0,0,0,0,0,0,0,0,0,0,0,0,0,0,0,0,0,0,0,0,0,0,0,0,0,0,0,0,0,0,0,0,0,0,0,0,0,0,0,0,0,0,0,0,0,0,0,0,0,0,0,0,0,0,0,0,0,0,0,0,0,0,0,0,0,0,0,0,0,0,0,0,0,0,0,0,0,0,0,0,0,0],"id":6,"left_children":[1,3,5,7,9,11,13,15,17,19,21,23,25,27,29,31,33,-1,35,37,39,41,43,45,47,49,51,53,55,57,59,61,63,65,67,69,71,-1,-1,73,75,-1,77,79,81,83,85,87,89,91,93,95,97,99,101,103,-1,105,107,109,111,-1,-1,-1,-1,-1,-1,-1,-1,-1,-1,-1,-1,-1,-1,-1,-1,-1,-1,-1,-1,-1,-1,-1,-1,-1,-1,-1,-1,-1,-1,-1,-1,-1,-1,-1,-1,-1,-1,-1,-1,-1,-1,-1,-1,-1,-1,-1,-1,-1,-1,-1,-1],"loss_changes":[1.2467537E4,8.400683E3,2.5842769E3,2.7236738E3,3.744352E3,3.0864922E3,2.0682834E3,2.4153438E3,2.23104E3,4.0046606E3,1.8502397E3,5.5754014E3,3.1852197E3,2.3080112E3,1.0619584E3,2.0724854E3,1.3831943E3,0E0,1.00714166E3,3.075139E3,3.8404656E3,1.462812E3,1.334127E3,2.8298184E3,1.5853374E3,4.4528945E3,3.6611787E3,1.0835376E3,6.792042E2,2.144151E3,1.372957E3,2.023584E3,3.7173967E3,3.5327832E2,5.5998413E2,6.760498E2,5.451986E2,0E0,0E0,3.774145E3,5.5528867E3,0E0,9.050725E1,1.3274987E3,1.066873E3,1.2592578E3,2.6742727E3,2.2061968E3,2.1986274E3,2.1074268E2,2.338958E3,1.6954789E3,2.9760854E3,2.3604195E2,3.291162E1,5.0486642E2,0E0,1.0935795E3,6.9989E2,9.9844434E2,5.79869E2,0E0,0E0,0E0,0E0,0E0,0E0,0E0,0E0,0E0,0E0,0E0,0E0,0E0,0E0,0E0,0E0,0E0,0E0,0E0,0E0,0E0,0E0,0E0,0E0,0E0,0E0,0E0,0E0,0E0,0E0,0E0,0E0,0E0,0E0,0E0,0E0,0E0,0E0,0E0,0E0,0E0,0E0,0E0,0E0,0E0,0E0,0E0,0E0,0E0,0E0,0E0,0E0],"parents":[2147483647,0,0,1,1,2,2,3,3,4,4,5,5,6,6,7,7,8,8,9,9,10,10,11,11,12,12,13,13,14,14,15,15,16,16,18,18,19,19,20,20,21,21,22,22,23,23,24,24,25,25,26,26,27,27,28,28,29,29,30,30,31,31,32,32,33,33,34,34,35,35,36,36,39,39,40,40,42,42,43,43,44,44,45,45,46,46,47,47,48,48,49,49,50,50,51,51,52,52,53,53,54,54,55,55,57,57,58,58,59,59,60,60],"right_children":[2,4,6,8,10,12,14,16,18,20,22,24,26,28,30,32,34,-1,36,38,40,42,44,46,48,50,52,54,56,58,60,62,64,66,68,70,72,-1,-1,74,76,-1,78,80,82,84,86,88,90,92,94,96,98,100,102,104,-1,106,108,110,112,-1,-1,-1,-1,-1,-1,-1,-1,-1,-1,-1,-1,-1,-1,-1,-1,-1,-1,-1,-1,-1,-1,-1,-1,-1,-1,-1,-1,-1,-1,-1,-1,-1,-1,-1,-1,-1,-1,-1,-1,-1,-1,-1,-1,-1,-1,-1,-1,-1,-1,-1,-1],"split_conditions":[2.5202003E1,1.2768586E1,2.2950616E2,8.4E0,2.42E1,4.7E0,2.6311834E1,2.4787415E1,1.4418369E1,3.7516637E0,8.567384E0,1.4013554E2,2.772075E1,3.4967383E2,6.7000003E0,2.3974915E1,9E-1,-9.042567E0,3.586885E1,1.3406166E1,1.5691583E1,3.6899998E1,2.1152E1,4.4555283E0,1.7855588E2,7.69592E0,1.2295065E2,1.024578E1,2.5945753E1,2.9999998E0,1.909358E1,3.5833408E2,1.0195057E1,6.48852E1,1.1013882E1,2.4518661E1,1.2114499E1,5.988278E0,-7.7008834E0,4E-1,1.5968657E2,7.2582345E0,2.2412415E1,3.6899998E1,2.2172834E1,2.85395E1,3.2407352E1,1.477755E1,1.6055355E1,1.1399999E1,2.0633371E1,8.4E0,1.61E1,2.5824919E1,1.7906157E1,2.5893667E1,5.943732E0,9.504273E0,3.9000003E0,6.9E0,8.200001E0,1.9243196E0,-5.970965E0,3.073835E0,-3.3727396E0,1.0820291E1,4.7342744E0,3.8522825E0,-9.173876E-1,4.6467185E0,-1.3495888E0,2.3678102E0,-2.134337E0,1.3919386E-1,-2.8895867E0,8.351023E-1,-2.2254224E0,-3.5278828E0,-1.6138459E-2,2.9006135E0,-4.832183E0,-7.5921464E0,-3.048748E0,7.6370096E0,-2.0864515E0,-1.8377163E0,8.160405E-1,1.7884392E-1,-1.4372642E0,-3.2741938E0,9.9177086E-1,6.794754E0,9.100216E-1,-2.645194E0,6.414047E-1,-1.1758127E0,1.5573068E0,-2.6765275E0,1.4566002E0,1.8302674E0,-1.9333267E0,-6.331879E0,-2.4297066E0,2.1951044E0,-3.9644578E0,3.656864E0,3.895431E-1,-5.884145E0,-1.4609628E0,9.029479E0,2.0032148E0,2.3587866E0,-3.9990296E0],"split_indices":[0,2,3,1,1,1,0,0,3,3,3,3,0,3,1,0,1,0,3,0,0,1,0,3,3,2,3,2,0,1,2,3,2,3,2,0,0,0,0,1,3,0,0,1,0,0,3,2,2,1,2,1,1,0,2,0,0,2,1,1,1,0,0,0,0,0,0,0,0,0,0,0,0,0,0,0,0,0,0,0,0,0,0,0,0,0,0,0,0,0,0,0,0,0,0,0,0,0,0,0,0,0,0,0,0,0,0,0,0,0,0,0,0],"split_type":[0,0,0,0,0,0,0,0,0,0,0,0,0,0,0,0,0,0,0,0,0,0,0,0,0,0,0,0,0,0,0,0,0,0,0,0,0,0,0,0,0,0,0,0,0,0,0,0,0,0,0,0,0,0,0,0,0,0,0,0,0,0,0,0,0,0,0,0,0,0,0,0,0,0,0,0,0,0,0,0,0,0,0,0,0,0,0,0,0,0,0,0,0,0,0,0,0,0,0,0,0,0,0,0,0,0,0,0,0,0,0,0,0],"sum_hessian":[2.683E3,1.404E3,1.279E3,4.72E2,9.32E2,1.118E3,1.61E2,4.47E2,2.5E1,8.91E2,4.1E1,6.81E2,4.37E2,1.9E1,1.42E2,4.31E2,1.6E1,2E0,2.3E1,9E0,8.82E2,4E0,3.7E1,2.81E2,4E2,2.45E2,1.92E2,1.4E1,5E0,8.5E1,5.7E1,4E2,3.1E1,8E0,8E0,6E0,1.7E1,1E0,8E0,1.54E2,7.28E2,2E0,2E0,7E0,3E1,7E0,2.74E2,3.32E2,6.8E1,5E0,2.4E2,9.7E1,9.5E1,4E0,1E1,3E0,2E0,6.9E1,1.6E1,5.2E1,5E0,3.98E2,2E0,1.3E1,1.8E1,3E0,5E0,5E0,3E0,4E0,2E0,2E0,1.5E1,9.4E1,6E1,6.71E2,5.7E1,1E0,1E0,5E0,2E0,6E0,2.4E1,6E0,1E0,3.9E1,2.35E2,1.17E2,2.15E2,5.5E1,1.3E1,4E0,1E0,2.19E2,2.1E1,2.8E1,6.9E1,7.6E1,1.9E1,2E0,2E0,8E0,2E0,2E0,1E0,1E1,5.9E1,4E0,1.2E1,1E0,5.1E1,1E0,4E0],"tree_param":{"num_deleted":"0","num_feature":"4","num_nodes":"113","size_leaf_vector":"1"}},{"base_weights":[3.0390374E-2,2.0976071E0,-1.4175969E0,3.102921E0,-2.257561E0,1.603769E0,-2.0700884E0,4.323028E0,-3.829515E-1,-2.6987586E0,1.3045888E1,-6.518442E0,5.7872553E0,-1.7820995E0,-9.875911E0,1.5694127E1,3.9102046E0,-8.734776E0,1.3322071E0,-2.0733829E0,-1.2479875E1,2.5611192E-1,4.594075E0,-8.278109E0,7.8315377E0,7.3978577E0,-1.1787761E1,-1.8494505E0,1.0480189E1,-2.163655E1,-5.5615225E0,2.5310337E1,7.7043967E0,-4.6530175E-1,5.239742E0,6.927386E0,-1.1702434E1,-2.6031197E1,2.189303E0,-7.835316E-1,-7.8369007E0,-2.7743622E1,-4.309334E0,-9.870528E0,8.481792E0,1.6728588E1,3.5771126E-1,5.404722E0,1.6224768E1,-2.1502947E1,-3.8083546E0,-6.702919E0,-1.6831908E0,9.26821E0,-3.864154E0,-2.4825502E1,-1.1383599E0,4.2802186E0,-1.3156839E1,3.145434E0,1.0033974E1,6.839202E0,9.867386E-1,-3.7658462E-1,5.650531E0,3.2147663E0,1.3587763E0,-5.9996843E0,6.5093126E0,-5.0912905E0,-1.9949566E0,-1.2371674E1,-2.4352834E0,1.6650885E0,-1.4022388E0,-9.372452E-1,1.0256072E0,-2.9087675E0,2.6982749E0,-1.06015E1,-7.439244E-1,-2.1781437E0,-4.8710445E-1,1.8087205E0,-3.6002676E0,5.784111E0,-2.1410623E0,5.4607546E-1,6.0001826E0,-2.6761837E0,1.0172602E0,5.610092E0,1.2741127E0,-2.3058686E-1,9.079362E0,-7.3654275E0,-4.818123E-1,6.824774E0,-2.786068E0,-2.7639356E0,1.4409883E0,4.8444586E0,-5.491517E-1,5.2439195E-1,-2.456469E0,-8.481962E0,-2.2069383E0,1.8085802E-1,8.91609E0,-3.9239407E-1,-8.2480345E0],"categories":[],"categories_nodes":[],"categories_segments":[],"categories_sizes":[],"default_left":[0,0,0,0,0,0,0,0,0,0,0,0,0,0,0,0,0,0,0,0,0,0,0,0,0,0,0,0,0,0,0,0,0,0,0,0,0,0,0,0,0,0,0,0,0,0,0,0,0,0,0,0,0,0,0,0,0,0,0,0,0,0,0,0,0,0,0,0,0,0,0,0,0,0,0,0,0,0,0,0,0,0,0,0,0,0,0,0,0,0,0,0,0,0,0,0,0,0,0,0,0,0,0,0,0,0,0,0,0,0,0],"id":7,"left_children":[1,3,5,7,9,11,13,15,17,19,21,23,25,27,29,31,33,35,37,39,41,-1,-1,43,45,47,49,51,53,55,57,59,61,63,65,67,69,71,73,75,77,79,81,83,85,87,89,91,93,95,97,99,101,-1,103,105,-1,107,109,-1,-1,-1,-1,-1,-1,-1,-1,-1,-1,-1,-1,-1,-1,-1,-1,-1,-1,-1,-1,-1,-1,-1,-1,-1,-1,-1,-1,-1,-1,-1,-1,-1,-1,-1,-1,-1,-1,-1,-1,-1,-1,-1,-1,-1,-1,-1,-1,-1,-1,-1,-1],"loss_changes":[8.0370005E3,4.849418E3,3.116184E3,3.8252256E3,1.4395917E3,9.585868E3,2.9025376E3,3.0650068E3,3.363617E3,1.2158496E3,1.5281561E2,2.4889436E3,5.352187E3,1.0550317E3,2.2137065E3,1.5721104E3,3.7488428E3,1.9402649E3,4.6303374E3,1.4212029E3,1.3770004E3,0E0,0E0,2.3789556E3,7.2546106E2,2.920752E3,1.1584517E3,9.957739E2,2.1691418E3,5.885669E2,2.672604E3,8.555625E2,8.5796796E2,2.3259312E3,1.8734863E3,3.2179055E3,7.9221436E2,1.2997871E3,4.408851E3,1.564737E3,1.1823208E3,6.7985693E2,5.9543045E1,2.7482354E3,1.4868763E3,2.0749585E2,2.2724683E2,2.090856E3,7.419345E3,3.851565E2,1.666238E3,1.2284519E3,3.2027705E3,0E0,1.3564911E2,3.9428955E2,0E0,1.4789197E3,3.3614883E3,0E0,0E0,0E0,0E0,0E0,0E0,0E0,0E0,0E0,0E0,0E0,0E0,0E0,0E0,0E0,0E0,0E0,0E0,0E0,0E0,0E0,0E0,0E0,0E0,0E0,0E0,0E0,0E0,0E0,0E0,0E0,0E0,0E0,0E0,0E0,0E0,0E0,0E0,0E0,0E0,0E0,0E0,0E0,0E0,0E0,0E0,0E0,0E0,0E0,0E0,0E0,0E0],"parents":[2147483647,0,0,1,1,2,2,3,3,4,4,5,5,6,6,7,7,8,8,9,9,10,10,11,11,12,12,13,13,14,14,15,15,16,16,17,17,18,18,19,19,20,20,23,23,24,24,25,25,26,26,27,27,28,28,29,29,30,30,31,31,32,32,33,33,34,34,35,35,36,36,37,37,38,38,39,39,40,40,41,41,42,42,43,43,44,44,45,45,46,46,47,47,48,48,49,49,50,50,51,51,52,52,54,54,55,55,57,57,58,58],"right_children":[2,4,6,8,10,12,14,16,18,20,22,24,26,28,30,32,34,36,38,40,42,-1,-1,44,46,48,50,52,54,56,58,60,62,64,66,68,70,72,74,76,78,80,82,84,86,88,90,92,94,96,98,100,102,-1,104,106,-1,108,110,-1,-1,-1,-1,-1,-1,-1,-1,-1,-1,-1,-1,-1,-1,-1,-1,-1,-1,-1,-1,-1,-1,-1,-1,-1,-1,-1,-1,-1,-1,-1,-1,-1,-1,-1,-1,-1,-1,-1,-1,-1,-1,-1,-1,-1,-1,-1,-1,-1,-1,-1,-1],"split_conditions":[4E-1,2.9216002E1,2.0291582E1,1.6279802E1,2.2065973E1,1.6272835E1,2.4985659E1,5.787142E0,1.5081322E1,1.9373219E1,2.926242E1,9.7E0,3.3174753E2,2.448E1,3.2407352E1,1.7066586E1,3.6526257E1,1.1649917E1,1.1649917E1,2E-1,1.98E1,2.5611192E-1,4.594075E0,2.4985659E1,1.5379206E1,1.2569235E2,1.3397612E1,1.4418369E1,4.321013E1,5.3800003E1,8.534378E1,1.3799915E1,8.0899935E0,1.6171976E1,1.618325E1,1.7015474E1,2.0904081E1,2.0457623E1,1.46249E2,1.6055355E1,3.1877E1,3.2327003E1,1.5403252E2,9.726665E0,2.5772078E1,9.901999E0,9.901999E0,1.1449314E1,8.000001E-1,1.9685331E1,1.0000001E0,2.8027002E1,1.696812E1,9.26821E0,1.521258E2,2.9574827E1,-1.1383599E0,2.6495752E1,8.200001E0,3.145434E0,1.0033974E1,6.839202E0,9.867386E-1,-3.7658462E-1,5.650531E0,3.2147663E0,1.3587763E0,-5.9996843E0,6.5093126E0,-5.0912905E0,-1.9949566E0,-1.2371674E1,-2.4352834E0,1.6650885E0,-1.4022388E0,-9.372452E-1,1.0256072E0,-2.9087675E0,2.6982749E0,-1.06015E1,-7.439244E-1,-2.1781437E0,-4.8710445E-1,1.8087205E0,-3.6002676E0,5.784111E0,-2.1410623E0,5.4607546E-1,6.0001826E0,-2.6761837E0,1.0172602E0,5.610092E0,1.2741127E0,-2.3058686E-1,9.079362E0,-7.3654275E0,-4.818123E-1,6.824774E0,-2.786068E0,-2.7639356E0,1.4409883E0,4.8444586E0,-5.491517E-1,5.2439195E-1,-2.456469E0,-8.481962E0,-2.2069383E0,1.8085802E-1,8.91609E0,-3.9239407E-1,-8.2480345E0],"split_indices":[1,0,0,2,2,0,2,3,3,2,0,1,3,2,3,0,3,0,0,1,2,0,0,2,2,3,2,3,3,1,3,0,2,2,0,2,0,3,3,2,0,0,3,2,2,0,0,3,1,0,1,0,3,0,3,2,0,0,1,0,0,0,0,0,0,0,0,0,0,0,0,0,0,0,0,0,0,0,0,0,0,0,0,0,0,0,0,0,0,0,0,0,0,0,0,0,0,0,0,0,0,0,0,0,0,0,0,0,0,0,0],"split_type":[0,0,0,0,0,0,0,0,0,0,0,0,0,0,0,0,0,0,0,0,0,0,0,0,0,0,0,0,0,0,0,0,0,0,0,0,0,0,0,0,0,0,0,0,0,0,0,0,0,0,0,0,0,0,0,0,0,0,0,0,0,0,0,0,0,0,0,0,0,0,0,0,0,0,0,0,0,0,0,0,0,0,0,0,0,0,0,0,0,0,0,0,0,0,0,0,0,0,0,0,0,0,0,0,0,0,0,0,0,0,0],"sum_hessian":[2.683E3,1.105E3,1.578E3,8.98E2,2.07E2,2.8E2,1.298E3,6.65E2,2.33E2,2.02E2,5E0,9.5E1,1.85E2,1.253E3,4.5E1,2.2E1,6.43E2,3.9E1,1.94E2,1.91E2,1.1E1,1E0,4E0,8.5E1,1E1,1.7E2,1.5E1,1.247E3,6E0,1.1E1,3.4E1,9E0,1.3E1,1.5E2,4.93E2,6E0,3.3E1,5E0,1.89E2,1.57E2,3.4E1,3E0,8E0,7.8E1,7E0,4E0,6E0,1.4E2,3E1,6E0,9E0,4E1,1.207E3,2E0,4E0,9E0,2E0,1.5E1,1.9E1,4E0,5E0,2E0,1.1E1,1.45E2,5E0,5.5E1,4.38E2,2E0,4E0,1.5E1,1.8E1,2E0,3E0,1.27E2,6.2E1,1.01E2,5.6E1,3.1E1,3E0,2E0,1E0,3E0,5E0,9E0,6.9E1,4E0,3E0,1E0,3E0,1E0,5E0,1E1,1.3E2,1.4E1,1.6E1,5E0,1E0,1E0,8E0,3.3E1,7E0,9E0,1.198E3,2E0,2E0,7E0,2E0,1.4E1,1E0,1.1E1,8E0],"tree_param":{"num_deleted":"0","num_feature":"4","num_nodes":"111","size_leaf_vector":"1"}},{"base_weights":[2.7997037E-2,1.4687309E0,-9.811731E-1,7.595951E0,1.0410705E0,1.7162417E0,-1.4167982E0,-9.9718666E-1,1.1649816E1,2.5006804E0,-6.6500366E-1,-4.492714E0,6.4709897E0,-8.7268245E-1,-3.7598884E0,1.0293018E1,-9.796835E0,8.468475E0,1.8998274E1,-1.28763075E1,2.6629972E0,-8.5870606E-1,9.524455E0,-5.7791114E0,5.973003E0,5.056189E0,2.4144402E1,-6.067595E0,-5.154733E-1,2.21813E0,-5.8481374E0,1.4475128E1,2.3794618E0,-5.0832E0,-7.6157293E0,1.403757E1,2.7467828E0,-3.4594965E0,2.223378E1,3.7192307E0,-9.213477E0,1.2802817E0,4.5286283E0,-6.617093E-1,-9.391189E0,1.0775859E1,1.0289078E0,-4.6122284E0,-1.095764E1,1.28969755E1,-9.368193E0,-3.080046E0,8.024833E0,-1.0302425E1,1.2925466E1,-8.830177E0,2.045176E1,-1.0665107E0,2.4605892E0,-6.5790586E0,4.0994554E0,-1.5629027E0,-1.0903497E1,1.0445862E0,5.452802E0,-1.1626434E0,2.3523743E0,-2.6436791E0,2.7124238E0,6.1702027E0,2.0271058E0,-2.3037944E0,3.3082557E0,8.356848E0,3.3094933E0,4.0004897E0,-3.7691965E0,-3.226665E-2,2.0115533E0,2.7830334E0,3.8922095E-1,-2.7304715E-1,4.121343E0,1.709649E0,3.9476774E0,-1.753621E0,1.5293415E0,7.431872E0,1.4428544E0,4.641632E-1,-4.0567193E0,3.5896802E0,-2.3314354E0,-1.6380112E0,3.150313E0,-4.745533E0,-9.5728153E-1,2.9837494E0,-3.0673316E0,7.2683015E0,-3.3055687E-1,2.8867447E-1,-6.8254685E-1,4.0641126E-1,3.5440345E0,5.72848E0,5.900924E-2,-9.1296107E-1,4.9743314E0,-3.84655E0,-1.150795E0],"categories":[],"categories_nodes":[],"categories_segments":[],"categories_sizes":[],"default_left":[0,0,0,0,0,0,0,0,0,0,0,0,0,0,0,0,0,0,0,0,0,0,0,0,0,0,0,0,0,0,0,0,0,0,0,0,0,0,0,0,0,0,0,0,0,0,0,0,0,0,0,0,0,0,0,0,0,0,0,0,0,0,0,0,0,0,0,0,0,0,0,0,0,0,0,0,0,0,0,0,0,0,0,0,0,0,0,0,0,0,0,0,0,0,0,0,0,0,0,0,0,0,0,0,0,0,0,0,0,0,0],"id":8,"left_children":[1,3,5,7,9,11,13,15,17,19,21,23,25,27,29,31,33,35,37,39,41,43,45,47,49,51,53,55,57,59,61,63,65,67,-1,69,71,-1,73,75,-1,77,79,81,-1,83,-1,85,-1,87,89,91,93,95,-1,97,99,101,103,-1,105,107,109,-1,-1,-1,-1,-1,-1,-1,-1,-1,-1,-1,-1,-1,-1,-1,-1,-1,-1,-1,-1,-1,-1,-1,-1,-1,-1,-1,-1,-1,-1,-1,-1,-1,-1,-1,-1,-1,-1,-1,-1,-1,-1,-1,-1,-1,-1,-1,-1],"loss_changes":[3.9038313E3,2.890221E3,1.8578536E3,2.519767E3,2.579023E3,6.5239165E3,1.7305996E3,2.4852349E3,9.846323E2,1.4270266E3,9.5161804E2,1.3269734E3,3.0034653E3,2.047388E3,3.208772E3,3.2960596E2,8.996864E2,1.1085691E3,1.6393091E3,1.8901404E3,1.420742E3,2.7981653E3,3.1685242E1,2.916992E3,1.2892634E3,2.8506858E3,6.315835E3,5.3821885E3,1.6999431E3,3.1337688E3,4.099006E3,2.2150293E2,2.012043E2,7.1173425E2,0E0,7.1675195E2,1.7250632E3,0E0,5.114751E2,7.938408E2,0E0,2.4024314E3,3.5934136E3,1.6867874E3,0E0,9.701782E0,0E0,1.035629E3,0E0,6.492235E2,2.0230127E2,2.3517173E3,2.9289941E3,1.0643268E2,0E0,1.8033022E3,5.9638696E2,2.1452808E3,1.6595923E3,0E0,3.6832383E3,2.8437527E3,1.1303486E3,0E0,0E0,0E0,0E0,0E0,0E0,0E0,0E0,0E0,0E0,0E0,0E0,0E0,0E0,0E0,0E0,0E0,0E0,0E0,0E0,0E0,0E0,0E0,0E0,0E0,0E0,0E0,0E0,0E0,0E0,0E0,0E0,0E0,0E0,0E0,0E0,0E0,0E0,0E0,0E0,0E0,0E0,0E0,0E0,0E0,0E0,0E0,0E0],"parents":[2147483647,0,0,1,1,2,2,3,3,4,4,5,5,6,6,7,7,8,8,9,9,10,10,11,11,12,12,13,13,14,14,15,15,16,16,17,17,18,18,19,19,20,20,21,21,22,22,23,23,24,24,25,25,26,26,27,27,28,28,29,29,30,30,31,31,32,32,33,33,35,35,36,36,38,38,39,39,41,41,42,42,43,43,45,45,47,47,49,49,50,50,51,51,52,52,53,53,55,55,56,56,57,57,58,58,60,60,61,61,62,62],"right_children":[2,4,6,8,10,12,14,16,18,20,22,24,26,28,30,32,34,36,38,40,42,44,46,48,50,52,54,56,58,60,62,64,66,68,-1,70,72,-1,74,76,-1,78,80,82,-1,84,-1,86,-1,88,90,92,94,96,-1,98,100,102,104,-1,106,108,110,-1,-1,-1,-1,-1,-1,-1,-1,-1,-1,-1,-1,-1,-1,-1,-1,-1,-1,-1,-1,-1,-1,-1,-1,-1,-1,-1,-1,-1,-1,-1,-1,-1,-1,-1,-1,-1,-1,-1,-1,-1,-1,-1,-1,-1,-1,-1,-1],"split_conditions":[4E-1,8.699793E0,1.94895E1,1.8683249E1,2.3452002E1,1.6272835E1,1.909358E1,1.6572834E1,1E-1,8.913181E0,3.457031E2,1.0290245E2,1.9327E1,6E-1,1.3000001E0,4.9635548E1,8.28E0,2.2464499E1,6.638072E0,1.3681825E2,1.1175453E2,3.412177E2,2.7635332E1,6.48852E1,3.5833408E2,2.832604E1,1.3830749E1,1.7974781E1,2.8955587E1,1.9211996E1,1.1540769E2,1.3799915E1,3.1601205E2,7.9932966E0,-7.6157293E0,9.322447E1,2.6495752E1,-3.4594965E0,7.5942073E0,1.7401415E1,-9.213477E0,2.0018667E1,1.9327E1,3.2412277E2,-9.391189E0,1.127553E1,1.0289078E0,2.4985659E1,-1.095764E1,7E-1,9.901999E0,1.1449314E1,8.825508E0,6E-1,1.2925466E1,1.9941584E1,2.975825E1,2.5597837E1,1.55E1,-6.5790586E0,2.2172834E1,1.0290245E2,1.7599998E1,1.0445862E0,5.452802E0,-1.1626434E0,2.3523743E0,-2.6436791E0,2.7124238E0,6.1702027E0,2.0271058E0,-2.3037944E0,3.3082557E0,8.356848E0,3.3094933E0,4.0004897E0,-3.7691965E0,-3.226665E-2,2.0115533E0,2.7830334E0,3.8922095E-1,-2.7304715E-1,4.121343E0,1.709649E0,3.9476774E0,-1.753621E0,1.5293415E0,7.431872E0,1.4428544E0,4.641632E-1,-4.0567193E0,3.5896802E0,-2.3314354E0,-1.6380112E0,3.150313E0,-4.745533E0,-9.5728153E-1,2.9837494E0,-3.0673316E0,7.2683015E0,-3.3055687E-1,2.8867447E-1,-6.8254685E-1,4.0641126E-1,3.5440345E0,5.72848E0,5.900924E-2,-9.1296107E-1,4.9743314E0,-3.84655E0,-1.150795E0],"split_indices":[1,2,0,0,0,0,2,0,1,2,3,3,0,1,1,3,2,0,2,3,3,3,0,3,3,3,2,2,0,2,3,0,3,2,0,3,0,0,2,0,0,0,0,3,0,2,0,2,0,1,0,3,2,1,0,0,0,0,1,0,0,3,1,0,0,0,0,0,0,0,0,0,0,0,0,0,0,0,0,0,0,0,0,0,0,0,0,0,0,0,0,0,0,0,0,0,0,0,0,0,0,0,0,0,0,0,0,0,0,0,0],"split_type":[0,0,0,0,0,0,0,0,0,0,0,0,0,0,0,0,0,0,0,0,0,0,0,0,0,0,0,0,0,0,0,0,0,0,0,0,0,0,0,0,0,0,0,0,0,0,0,0,0,0,0,0,0,0,0,0,0,0,0,0,0,0,0,0,0,0,0,0,0,0,0,0,0,0,0,0,0,0,0,0,0,0,0,0,0,0,0,0,0,0,0,0,0,0,0,0,0,0,0,0,0,0,0,0,0,0,0,0,0,0,0],"sum_hessian":[2.683E3,1.105E3,1.578E3,7.1E1,1.034E3,2.19E2,1.359E3,2.3E1,4.8E1,5.57E2,4.77E2,9.5E1,1.24E2,1.104E3,2.55E2,1E1,1.3E1,3.5E1,1.3E1,5E0,5.52E2,4.69E2,8E0,8.5E1,1E1,1.16E2,8E0,7E1,1.034E3,6.6E1,1.89E2,6E0,4E0,1.1E1,2E0,1.7E1,1.8E1,1E0,1.2E1,3E0,2E0,3.18E2,2.34E2,4.67E2,2E0,6E0,2E0,8.3E1,2E0,7E0,3E0,3.1E1,8.5E1,3E0,5E0,6.4E1,6E0,8.73E2,1.61E2,4E0,6.2E1,1.03E2,8.6E1,2E0,4E0,2E0,2E0,9E0,2E0,8E0,9E0,8E0,1E1,7E0,5E0,2E0,1E0,2.54E2,6.4E1,9.4E1,1.4E2,4.6E2,7E0,3E0,3E0,7.4E1,9E0,2E0,5E0,1E0,2E0,7E0,2.4E1,1.3E1,7.2E1,1E0,2E0,4E0,6E1,5E0,1E0,3.26E2,5.47E2,1.45E2,1.6E1,1.2E1,5E1,9.6E1,7E0,6.7E1,1.9E1],"tree_param":{"num_deleted":"0","num_feature":"4","num_nodes":"111","size_leaf_vector":"1"}},{"base_weights":[2.9895885E-2,1.3671957E0,-6.752843E-1,8.607764E-1,9.380592E0,-7.9547105E0,-4.662977E-1,5.034213E0,9.052146E-2,3.316418E0,1.5546535E1,-1.3075064E0,-1.838148E1,-3.2946852E-1,-7.2014804E0,5.6487427E0,-2.4092834E1,-2.4160711E1,2.223778E-1,7.65066E0,-7.165305E0,1.7869337E1,-8.992328E0,3.061952E0,-9.530335E0,-2.4952066E1,-1.4252551E1,-2.1983614E0,1.5271184E-1,-9.525263E0,3.1183285E-1,6.1914387E0,-9.591105E0,-1.6142601E1,5.3008256E0,-1.8232259E0,-8.448801E0,6.651493E-1,-5.37378E0,1.6081014E0,2.6665228E1,-1.06489315E1,8.1314087E-1,2.2459446E1,-4.0925217E-1,-5.887219E-1,-3.4578257E0,-6.7577806E0,1.9863739E1,-5.276402E-1,-2.0228043E1,-8.31268E0,-1.675161E0,-1.4040712E0,-2.3713402E1,-8.9979726E-1,-1.1031757E1,7.733191E0,-2.6056287E-1,-1.4709249E1,-3.209796E0,4.912627E0,-3.1581895E0,1.5523525E0,5.786569E0,8.13176E-1,-5.608729E0,5.811288E-1,-6.31994E-1,-7.909207E-1,-3.0832682E0,3.9260168E0,-1.7528001E0,3.5589263E0,9.773688E0,-3.1764345E0,1.9134735E0,2.2968283E0,7.3864336E0,3.9661744E0,-1.7338005E0,3.2856E0,-3.7750072E0,2.5747604E0,7.474787E0,2.6917088E0,-2.96872E0,-7.706278E0,2.4152298E-1,1.3125367E0,-3.1704109E0,-2.433693E0,-8.268515E0,-6.0660136E-1,2.4825473E0,-4.2287087E0,-1.6755441E-1,6.1420435E-1,6.189574E0,1.1045942E0,-1.9504383E-1,-1.7294341E0,-4.987374E0,2.771954E0,-4.560269E0,2.3410642E0,2.3806515E-1],"categories":[],"categories_nodes":[],"categories_segments":[],"categories_sizes":[],"default_left":[0,0,0,0,0,0,0,0,0,0,0,0,0,0,0,0,0,0,0,0,0,0,0,0,0,0,0,0,0,0,0,0,0,0,0,0,0,0,0,0,0,0,0,0,0,0,0,0,0,0,0,0,0,0,0,0,0,0,0,0,0,0,0,0,0,0,0,0,0,0,0,0,0,0,0,0,0,0,0,0,0,0,0,0,0,0,0,0,0,0,0,0,0,0,0,0,0,0,0,0,0,0,0,0,0,0,0],"id":9,"left_children":[1,3,5,7,9,11,13,15,17,19,21,23,25,27,29,31,33,35,37,39,41,43,45,47,49,51,53,55,57,59,61,63,65,-1,-1,-1,-1,67,69,71,73,-1,75,77,79,-1,-1,81,83,85,87,-1,-1,89,91,93,95,97,99,101,103,105,-1,-1,-1,-1,-1,-1,-1,-1,-1,-1,-1,-1,-1,-1,-1,-1,-1,-1,-1,-1,-1,-1,-1,-1,-1,-1,-1,-1,-1,-1,-1,-1,-1,-1,-1,-1,-1,-1,-1,-1,-1,-1,-1,-1,-1],"loss_changes":[2.5320354E3,3.7538198E3,2.6707412E3,2.8058994E3,2.0049658E3,3.3721003E3,1.573511E3,2.5704163E3,2.3652598E3,1.3722987E3,1.6996577E3,1.1429901E3,1.598291E2,1.5115532E3,5.965868E2,1.167644E3,4.6737686E3,1.1831787E2,1.8247712E3,2.3699492E3,2.0632092E3,2.10671E3,3.081749E1,3.5990051E3,1.048717E3,1.656499E2,1.6685105E3,3.936005E3,4.1811978E3,8.040078E2,5.005342E2,1.631644E3,6.1068994E2,0E0,0E0,0E0,0E0,2.4085234E3,6.977733E2,1.5303785E3,5.1192383E1,0E0,5.7512695E2,4.515918E2,5.1556616E2,0E0,0E0,1.5821884E3,2.4211865E2,7.117664E2,5.948373E2,0E0,0E0,4.169587E2,2.5671387E2,3.1158882E3,1.4040596E3,5.018226E3,1.9469047E3,1.4400513E2,2.0811577E3,7.716293E1,0E0,0E0,0E0,0E0,0E0,0E0,0E0,0E0,0E0,0E0,0E0,0E0,0E0,0E0,0E0,0E0,0E0,0E0,0E0,0E0,0E0,0E0,0E0,0E0,0E0,0E0,0E0,0E0,0E0,0E0,0E0,0E0,0E0,0E0,0E0,0E0,0E0,0E0,0E0,0E0,0E0,0E0,0E0,0E0,0E0],"parents":[2147483647,0,0,1,1,2,2,3,3,4,4,5,5,6,6,7,7,8,8,9,9,10,10,11,11,12,12,13,13,14,14,15,15,16,16,17,17,18,18,19,19,20,20,21,21,22,22,23,23,24,24,25,25,26,26,27,27,28,28,29,29,30,30,31,31,32,32,37,37,38,38,39,39,40,40,42,42,43,43,44,44,47,47,48,48,49,49,50,50,53,53,54,54,55,55,56,56,57,57,58,58,59,59,60,60,61,61],"right_children":[2,4,6,8,10,12,14,16,18,20,22,24,26,28,30,32,34,36,38,40,42,44,46,48,50,52,54,56,58,60,62,64,66,-1,-1,-1,-1,68,70,72,74,-1,76,78,80,-1,-1,82,84,86,88,-1,-1,90,92,94,96,98,100,102,104,106,-1,-1,-1,-1,-1,-1,-1,-1,-1,-1,-1,-1,-1,-1,-1,-1,-1,-1,-1,-1,-1,-1,-1,-1,-1,-1,-1,-1,-1,-1,-1,-1,-1,-1,-1,-1,-1,-1,-1,-1,-1,-1,-1,-1,-1],"split_conditions":[1.27279215E1,1.2496718E1,1.288981E1,3.386725E1,1.2214363E2,2.1E0,4.78E1,1.24811535E1,3.4476845E1,2.7341583E1,3.1354082E1,1.3273523E2,4.3999996E0,3.2407352E1,2.6681162E1,2.4900002E1,1.853325E1,1.3604084E1,2.9624334E1,2.7014502E1,2.7560331E1,6.7000003E0,3.1622839E1,1.1079426E2,2.6311834E1,2.6272247E1,1.1995353E2,2.9139927E1,3.865983E1,2.0211363E1,3.1225824E2,1.4700001E1,8.567384E0,-1.6142601E1,5.3008256E0,-1.8232259E0,-8.448801E0,3.9000003E0,5E-1,1.94895E1,1E-1,-1.06489315E1,1.0000001E0,2.187075E1,1.2441941E2,-5.887219E-1,-3.4578257E0,1.2768586E1,1.2758432E1,1.4213148E2,3.0492755E2,-8.31268E0,-1.675161E0,1.2849528E1,2.5893667E1,2.6881784E1,2.2065973E1,2.0018667E1,1.94895E1,4.7910896E1,2.289611E1,2.782075E1,-3.1581895E0,1.5523525E0,5.786569E0,8.13176E-1,-5.608729E0,5.811288E-1,-6.31994E-1,-7.909207E-1,-3.0832682E0,3.9260168E0,-1.7528001E0,3.5589263E0,9.773688E0,-3.1764345E0,1.9134735E0,2.2968283E0,7.3864336E0,3.9661744E0,-1.7338005E0,3.2856E0,-3.7750072E0,2.5747604E0,7.474787E0,2.6917088E0,-2.96872E0,-7.706278E0,2.4152298E-1,1.3125367E0,-3.1704109E0,-2.433693E0,-8.268515E0,-6.0660136E-1,2.4825473E0,-4.2287087E0,-1.6755441E-1,6.1420435E-1,6.189574E0,1.1045942E0,-1.9504383E-1,-1.7294341E0,-4.987374E0,2.771954E0,-4.560269E0,2.3410642E0,2.3806515E-1],"split_indices":[2,2,2,3,3,1,1,2,3,0,0,3,1,3,0,1,0,0,0,0,0,1,0,3,0,0,3,3,3,2,3,1,3,0,0,0,0,1,1,0,1,0,1,0,3,0,0,2,2,3,3,0,0,2,0,3,2,0,0,3,2,0,0,0,0,0,0,0,0,0,0,0,0,0,0,0,0,0,0,0,0,0,0,0,0,0,0,0,0,0,0,0,0,0,0,0,0,0,0,0,0,0,0,0,0,0,0],"split_type":[0,0,0,0,0,0,0,0,0,0,0,0,0,0,0,0,0,0,0,0,0,0,0,0,0,0,0,0,0,0,0,0,0,0,0,0,0,0,0,0,0,0,0,0,0,0,0,0,0,0,0,0,0,0,0,0,0,0,0,0,0,0,0,0,0,0,0,0,0,0,0,0,0,0,0,0,0,0,0,0,0,0,0,0,0,0,0,0,0,0,0,0,0,0,0,0,0,0,0,0,0,0,0,0,0,0,0],"sum_hessian":[2.683E3,9.26E2,1.757E3,8.72E2,5.4E1,4.8E1,1.709E3,1.35E2,7.37E2,2.8E1,2.6E1,3E1,1.8E1,1.676E3,3.3E1,1.33E2,2E0,3E0,7.34E2,2E1,8E0,2.4E1,2E0,2E1,1E1,5E0,1.3E1,3.43E2,1.333E3,2.5E1,8E0,1.29E2,4E0,1E0,1E0,1E0,2E0,6.81E2,5.3E1,1.6E1,4E0,1E0,7E0,1.9E1,5E0,1E0,1E0,1.3E1,7E0,6E0,4E0,4E0,1E0,6E0,7E0,3E2,4.3E1,6.8E1,1.265E3,1.3E1,1.2E1,6E0,2E0,1.21E2,8E0,2E0,2E0,4.67E2,2.14E2,3.5E1,1.8E1,6E0,1E1,2E0,2E0,2E0,5E0,3E0,1.6E1,1E0,4E0,3E0,1E1,3E0,4E0,3E0,3E0,3E0,1E0,4E0,2E0,2E0,5E0,2.68E2,3.2E1,3.3E1,1E1,4.8E1,2E1,1.13E2,1.152E3,3E0,1E1,6E0,6E0,3E0,3E0],"tree_param":{"num_deleted":"0","num_feature":"4","num_nodes":"107","size_leaf_vector":"1"}},{"base_weights":[7.643327E-3,5.396329E-1,-1.0762038E0,6.1108834E-1,-1.2319146E1,-1.1323912E1,-8.25882E-1,3.6460164E-1,4.9618893E0,-1.7138424E1,4.6386414E0,-1.51473E1,3.9403915E0,-3.9915514E-1,-5.5143337E0,1.403832E0,-4.6981737E-1,6.6070647E0,-1.6899208E1,-1.0946089E1,-9.072715E0,-1.563057E-1,2.2436943E0,-4.0438538E0,-1.7237762E1,3.164326E0,-1.1941301E0,1.2509242E0,-1.6340182E0,6.8819323E0,-6.238191E0,9.048592E0,1.1730993E0,-4.718961E0,-9.898427E-3,9.768785E0,-1.1320906E0,-8.043749E0,-2.7611208E0,-1.4522976E1,1.5772854E0,-3.0877717E0,2.2053452E0,-2.9088148E1,-1.1361463E1,-1.1866834E0,4.273667E0,-6.9269166E0,-6.0171235E-1,-1.1248164E1,-4.0529437E0,4.579214E0,1.3219845E0,2.6581728E-1,1.6359667E0,-5.8265333E0,-9.838948E-1,1.124413E-1,-1.5828527E0,1.9517608E0,6.287206E0,-2.4388645E0,5.1704913E-1,3.7975731E-1,-1.35762E0,-5.067291E0,-1.9573983E0,-1.0044764E1,-2.385744E0,-2.1337416E0,-4.5113277E0,-3.2743242E0,3.0526704E-1,3.6814375E0,5.328845E-1,-3.1378944E0,3.1362987E0,2.3121293E0,-5.727468E-1,2.549199E0,-4.1321597E0,1.1204005E0,-1.8130351E0],"categories":[],"categories_nodes":[],"categories_segments":[],"categories_sizes":[],"default_left":[0,0,0,0,0,0,0,0,0,0,0,0,0,0,0,0,0,0,0,0,0,0,0,0,0,0,0,0,0,0,0,0,0,0,0,0,0,0,0,0,0,0,0,0,0,0,0,0,0,0,0,0,0,0,0,0,0,0,0,0,0,0,0,0,0,0,0,0,0,0,0,0,0,0,0,0,0,0,0,0,0,0,0],"id":10,"left_children":[1,3,5,7,9,11,13,15,17,19,21,23,25,27,29,31,33,35,37,39,-1,-1,-1,41,43,-1,-1,45,47,-1,49,51,53,55,57,59,61,-1,63,65,-1,-1,-1,67,69,71,73,75,77,79,81,-1,-1,-1,-1,-1,-1,-1,-1,-1,-1,-1,-1,-1,-1,-1,-1,-1,-1,-1,-1,-1,-1,-1,-1,-1,-1,-1,-1,-1,-1,-1,-1],"loss_changes":[1.5481627E3,1.6623406E3,2.2583066E3,1.9199579E3,8.9674194E2,1.2852749E3,1.7263933E3,1.4722191E3,3.564327E3,3.1811694E2,4.786226E1,3.2488623E2,3.0366336E2,1.617878E3,1.6260667E3,1.3228909E3,1.840868E3,2.2132737E3,9.0705176E2,4.8206805E2,0E0,0E0,0E0,3.6047894E2,6.444258E2,0E0,0E0,2.5102803E3,2.4764385E3,0E0,7.3172217E2,5.674812E2,8.9816956E2,1.8832014E3,1.7260621E3,2.200125E3,5.5352124E2,0E0,3.4147366E1,3.4318848E0,0E0,0E0,0E0,1.0524463E2,6.487036E1,4.0636921E3,3.0141846E3,4.653189E3,4.1536313E3,1.1643362E3,8.131365E2,0E0,0E0,0E0,0E0,0E0,0E0,0E0,0E0,0E0,0E0,0E0,0E0,0E0,0E0,0E0,0E0,0E0,0E0,0E0,0E0,0E0,0E0,0E0,0E0,0E0,0E0,0E0,0E0,0E0,0E0,0E0,0E0],"parents":[2147483647,0,0,1,1,2,2,3,3,4,4,5,5,6,6,7,7,8,8,9,9,10,10,11,11,12,12,13,13,14,14,15,15,16,16,17,17,18,18,19,19,23,23,24,24,27,27,28,28,30,30,31,31,32,32,33,33,34,34,35,35,36,36,38,38,39,39,43,43,44,44,45,45,46,46,47,47,48,48,49,49,50,50],"right_children":[2,4,6,8,10,12,14,16,18,20,22,24,26,28,30,32,34,36,38,40,-1,-1,-1,42,44,-1,-1,46,48,-1,50,52,54,56,58,60,62,-1,64,66,-1,-1,-1,68,70,72,74,76,78,80,82,-1,-1,-1,-1,-1,-1,-1,-1,-1,-1,-1,-1,-1,-1,-1,-1,-1,-1,-1,-1,-1,-1,-1,-1,-1,-1,-1,-1,-1,-1,-1,-1],"split_conditions":[1.6299694E1,3.2327003E1,6.477824E0,1.59134655E1,1.6055355E1,2.6901995E1,2.3500002E1,4E-1,3.412177E2,1.5509274E1,1.6171976E1,1.5970752E1,1E-1,1.1995353E2,8.567384E0,5.787142E0,7E-1,2.8126999E1,1.4000001E0,1.5192682E1,-9.072715E0,-1.563057E-1,2.2436943E0,1.4655583E1,2.0904081E1,3.164326E0,-1.1941301E0,2.1152E1,1.3499988E2,6.8819323E0,4.2456856E1,1.7066586E1,3E-1,1.5191585E1,1.5379206E1,2.6535337E1,2.9107668E1,-8.043749E0,1.7066586E1,2.0243301E2,1.5772854E0,-3.0877717E0,2.2053452E0,5.787142E0,2.4470155E0,1.7114204E1,1.7713316E1,2.7931166E1,2.2172834E1,1.7373497E1,6.896241E1,4.579214E0,1.3219845E0,2.6581728E-1,1.6359667E0,-5.8265333E0,-9.838948E-1,1.124413E-1,-1.5828527E0,1.9517608E0,6.287206E0,-2.4388645E0,5.1704913E-1,3.7975731E-1,-1.35762E0,-5.067291E0,-1.9573983E0,-1.0044764E1,-2.385744E0,-2.1337416E0,-4.5113277E0,-3.2743242E0,3.0526704E-1,3.6814375E0,5.328845E-1,-3.1378944E0,3.1362987E0,2.3121293E0,-5.727468E-1,2.549199E0,-4.1321597E0,1.1204005E0,-1.8130351E0],"split_indices":[2,0,3,2,2,0,1,1,3,2,2,0,1,3,3,3,1,0,1,2,0,0,0,0,0,0,0,0,3,0,3,0,1,0,2,0,0,0,0,3,0,0,0,3,3,2,2,0,0,2,3,0,0,0,0,0,0,0,0,0,0,0,0,0,0,0,0,0,0,0,0,0,0,0,0,0,0,0,0,0,0,0,0],"split_type":[0,0,0,0,0,0,0,0,0,0,0,0,0,0,0,0,0,0,0,0,0,0,0,0,0,0,0,0,0,0,0,0,0,0,0,0,0,0,0,0,0,0,0,0,0,0,0,0,0,0,0,0,0,0,0,0,0,0,0,0,0,0,0,0,0,0,0,0,0,0,0,0,0,0,0,0,0,0,0,0,0,0,0],"sum_hessian":[2.683E3,1.8E3,8.83E2,1.791E3,9E0,2E1,8.63E2,1.696E3,9.5E1,7E0,2E0,1.6E1,4E0,7.92E2,7.1E1,7.55E2,9.41E2,8.9E1,6E0,6E0,1E0,1E0,1E0,3E0,1.3E1,2E0,2E0,3.39E2,4.53E2,1E0,7E1,2.1E1,7.34E2,9.1E1,8.5E2,6.3E1,2.6E1,3E0,3E0,5E0,1E0,2E0,1E0,3E0,1E1,1.88E2,1.51E2,7.3E1,3.8E2,2E1,5E1,8E0,1.3E1,6.89E2,4.5E1,7E0,8.4E1,7.93E2,5.7E1,5E1,1.3E1,7E0,1.9E1,1E0,2E0,3E0,2E0,2E0,1E0,6E0,4E0,3.4E1,1.54E2,3.5E1,1.16E2,6.1E1,1.2E1,5.1E1,3.29E2,2E0,1.8E1,1E1,4E1],"tree_param":{"num_deleted":"0","num_feature":"4","num_nodes":"83","size_leaf_vector":"1"}},{"base_weights":[-4.342541E-3,4.451003E0,-1.1313223E-1,2.8569217E0,1.1871856E1,2.8154314E-1,-1.374018E0,5.8310905E0,-3.415365E0,1.3454767E0,1.4061554E1,1.3629866E-1,7.9718914E0,-3.1803482E0,1.2999313E-1,9.890105E0,2.2675502E0,-1.0499289E1,-6.4143753E-1,1.3453057E0,-7.398411E-1,1.6123112E1,-3.646351E-1,7.034581E-1,-9.6256447E-1,2.8127409E1,3.1634874E0,-1.6253575E0,-9.625212E0,-8.151244E-1,5.665782E0,5.2177277E0,1.5819541E1,-4.97356E0,1.0730127E1,1.799492E-1,-1.34240265E1,-5.60188E0,9.407735E0,6.278035E0,2.7166655E0,-5.576359E-1,1.8679409E0,1.3338937E1,-1.1123347E0,1.9436722E0,1.4183789E1,7.124395E0,1.0986356E-1,-5.0639725E0,3.5062227E-1,-1.14602585E1,7.8007045E0,-1.0946146E0,1.9651695E1,7.5994864E0,-5.436102E0,7.089863E-1,5.0643196E0,5.111356E0,1.2764511E0,-4.081212E0,2.948976E0,7.283457E0,1.2925014E0,-2.4265824E-1,-5.2078385E0,9.966374E-1,-2.9703126E0,4.331873E0,-1.6079441E0,1.3304459E-2,-1.7986882E0,4.684125E0,4.138286E-1,5.435399E0,-2.300313E0,-2.3916464E-1,-2.2502465E0,2.8556213E0,-3.1172287E0,1.4892918E0,-2.0329256E0,-3.8145485E0,5.548852E-1,2.6223783E0,-2.6637787E-1,1.0039014E0,-4.9068184E0,-1.7448089E-1,-5.731673E0,7.8136673E0,7.051621E-2,3.7997763E0,9.18244E-1,1.9214139E0,-2.4127817E0],"categories":[],"categories_nodes":[],"categories_segments":[],"categories_sizes":[],"default_left":[0,0,0,0,0,0,0,0,0,0,0,0,0,0,0,0,0,0,0,0,0,0,0,0,0,0,0,0,0,0,0,0,0,0,0,0,0,0,0,0,0,0,0,0,0,0,0,0,0,0,0,0,0,0,0,0,0,0,0,0,0,0,0,0,0,0,0,0,0,0,0,0,0,0,0,0,0,0,0,0,0,0,0,0,0,0,0,0,0,0,0,0,0,0,0,0,0],"id":11,"left_children":[1,3,5,7,9,11,13,15,17,19,21,23,25,27,29,31,33,35,37,-1,-1,39,-1,41,43,45,47,49,51,53,55,57,59,61,63,-1,65,67,69,-1,-1,71,73,75,77,79,-1,-1,81,83,85,87,-1,89,91,93,95,-1,-1,-1,-1,-1,-1,-1,-1,-1,-1,-1,-1,-1,-1,-1,-1,-1,-1,-1,-1,-1,-1,-1,-1,-1,-1,-1,-1,-1,-1,-1,-1,-1,-1,-1,-1,-1,-1,-1,-1],"loss_changes":[1.3014266E3,7.2316736E2,1.3047026E3,1.0272767E3,2.3462585E2,2.229524E3,1.6983763E3,5.1275867E2,3.4697064E2,4.6951565E1,3.0304663E2,1.2228322E3,3.4969065E3,2.830519E3,1.7939524E3,3.8843555E2,1.3402144E3,1.7036218E2,7.505777E2,0E0,0E0,8.209839E1,0E0,1.9013096E3,1.4456534E3,3.4183804E3,1.9459674E3,1.5645413E3,3.8937964E3,1.6975516E3,1.1146997E3,3.263205E2,2.613269E1,1.6668601E3,7.654292E2,0E0,1.8454333E2,4.1654996E2,4.4893317E2,0E0,0E0,2.036435E3,4.4976553E3,8.4166785E2,1.3267162E3,4.7264355E2,0E0,0E0,9.69654E2,4.466881E3,1.5354169E3,3.896712E3,0E0,2.6684395E3,4.904673E2,9.500122E2,2.9841562E2,0E0,0E0,0E0,0E0,0E0,0E0,0E0,0E0,0E0,0E0,0E0,0E0,0E0,0E0,0E0,0E0,0E0,0E0,0E0,0E0,0E0,0E0,0E0,0E0,0E0,0E0,0E0,0E0,0E0,0E0,0E0,0E0,0E0,0E0,0E0,0E0,0E0,0E0,0E0,0E0],"parents":[2147483647,0,0,1,1,2,2,3,3,4,4,5,5,6,6,7,7,8,8,9,9,10,10,11,11,12,12,13,13,14,14,15,15,16,16,17,17,18,18,21,21,23,23,24,24,25,25,26,26,27,27,28,28,29,29,30,30,31,31,32,32,33,33,34,34,36,36,37,37,38,38,41,41,42,42,43,43,44,44,45,45,48,48,49,49,50,50,51,51,53,53,54,54,55,55,56,56],"right_children":[2,4,6,8,10,12,14,16,18,20,22,24,26,28,30,32,34,36,38,-1,-1,40,-1,42,44,46,48,50,52,54,56,58,60,62,64,-1,66,68,70,-1,-1,72,74,76,78,80,-1,-1,82,84,86,88,-1,90,92,94,96,-1,-1,-1,-1,-1,-1,-1,-1,-1,-1,-1,-1,-1,-1,-1,-1,-1,-1,-1,-1,-1,-1,-1,-1,-1,-1,-1,-1,-1,-1,-1,-1,-1,-1,-1,-1,-1,-1,-1,-1],"split_conditions":[7.69592E0,6.0999994E0,6.0999994E0,1.4000001E0,4.5412155E1,5.5E0,2.6535337E1,8.296736E1,1.6878498E1,1.7401415E1,3.478976E2,2.6431168E1,2.1729082E1,2.5945753E1,2.9532413E2,1.8822247E1,7.145796E0,1.5191585E1,7.5942073E0,1.3453057E0,-7.398411E-1,1.0099999E1,-3.646351E-1,1.1175453E2,5.787142E0,1.7514498E1,1.0144082E1,1.1399999E1,3.4278946E2,2.6925497E1,3.8300003E1,9.000001E-1,4E-1,2.0956026E2,1.2569235E2,1.799492E-1,6.9247384E0,6.638072E0,2.483117E1,6.278035E0,2.7166655E0,8.947113E1,1.178854E2,2.8704086E1,4.7E0,1.5466E1,1.4183789E1,7.124395E0,5.7999997E0,1.7114204E1,1.8822247E1,1.1681987E1,7.8007045E0,2.1566975E1,2.8E1,3.2939496E2,9.227524E0,7.089863E-1,5.0643196E0,5.111356E0,1.2764511E0,-4.081212E0,2.948976E0,7.283457E0,1.2925014E0,-2.4265824E-1,-5.2078385E0,9.966374E-1,-2.9703126E0,4.331873E0,-1.6079441E0,1.3304459E-2,-1.7986882E0,4.684125E0,4.138286E-1,5.435399E0,-2.300313E0,-2.3916464E-1,-2.2502465E0,2.8556213E0,-3.1172287E0,1.4892918E0,-2.0329256E0,-3.8145485E0,5.548852E-1,2.6223783E0,-2.6637787E-1,1.0039014E0,-4.9068184E0,-1.7448089E-1,-5.731673E0,7.8136673E0,7.051621E-2,3.7997763E0,9.18244E-1,1.9214139E0,-2.4127817E0],"split_indices":[2,1,1,1,3,1,0,3,0,0,3,0,0,0,3,0,2,0,2,0,0,1,0,3,3,0,2,1,3,2,1,1,1,3,3,0,2,2,0,0,0,3,3,0,1,0,0,0,1,2,0,2,0,2,1,3,2,0,0,0,0,0,0,0,0,0,0,0,0,0,0,0,0,0,0,0,0,0,0,0,0,0,0,0,0,0,0,0,0,0,0,0,0,0,0,0,0],"split_type":[0,0,0,0,0,0,0,0,0,0,0,0,0,0,0,0,0,0,0,0,0,0,0,0,0,0,0,0,0,0,0,0,0,0,0,0,0,0,0,0,0,0,0,0,0,0,0,0,0,0,0,0,0,0,0,0,0,0,0,0,0,0,0,0,0,0,0,0,0,0,0,0,0,0,0,0,0,0,0,0,0,0,0,0,0,0,0,0,0,0,0,0,0,0,0,0,0],"sum_hessian":[2.683E3,6.3E1,2.62E3,5.3E1,1E1,1.996E3,6.24E2,3.6E1,1.7E1,2E0,8E0,1.96E3,3.6E1,2.83E2,3.41E2,1.6E1,2E1,4E0,1.3E1,1E0,1E0,7E0,1E0,1.293E3,6.67E2,6E0,3E1,2.29E2,5.4E1,2.92E2,4.9E1,1E1,6E0,1.1E1,9E0,1E0,3E0,9E0,4E0,3E0,4E0,6.21E2,6.72E2,6E0,6.61E2,3E0,3E0,3E0,2.7E1,8.3E1,1.46E2,5.2E1,2E0,2.89E2,3E0,4.2E1,7E0,9E0,1E0,5E0,1E0,7E0,4E0,2E0,7E0,1E0,2E0,3E0,6E0,3E0,1E0,5.6E2,6.1E1,2.2E1,6.5E2,5E0,1E0,6.31E2,3E1,2E0,1E0,1.6E1,1.1E1,3.9E1,4.4E1,1.8E1,1.28E2,1.3E1,3.9E1,2.82E2,7E0,2E0,1E0,1.9E1,2.3E1,1E0,6E0],"tree_param":{"num_deleted":"0","num_feature":"4","num_nodes":"97","size_leaf_vector":"1"}},{"base_weights":[1.8562764E-2,8.0980724E-1,-3.9867398E-1,4.2330614E-1,6.92991E0,-5.775087E0,-2.443799E-1,3.6770902E0,-1.6715717E-2,2.5498514E0,1.1377754E1,-9.49283E-1,-1.3344815E1,-7.5217853E0,-1.7987195E-1,-9.0337676E-1,8.642062E0,4.053728E0,-3.416437E-1,6.209396E0,-6.2724023E0,1.29939995E1,-5.8835425E0,2.6072776E0,-7.652782E0,-9.502833E0,-1.8573523E1,4.025173E0,-9.975804E0,3.487105E0,-3.4223655E-1,7.790396E-1,-1.376308E1,6.568455E0,2.044158E1,2.644539E-1,7.005834E0,-8.0684704E-1,2.394711E0,1.3920965E0,2.1346334E1,-9.042285E0,4.7878456E-1,1.9155622E1,4.722608E0,-5.04411E-1,-2.1431832E0,-4.1870646E0,1.4171467E1,-1.1872166E0,-1.5174017E1,-1.8891796E1,-1.2732573E0,-1.9572769E0,-6.6265135E0,-1.4154986E1,4.010895E0,1.0733259E1,-8.418789E-1,-3.7835438E0,1.8024025E-2,1.4968411E0,-2.3757043E0,2.7788196E0,-1.0555074E0,-2.1747515E-1,8.715949E0,1.3661804E0,-2.1162326E0,2.4851243E0,-2.432573E0,-7.129765E-2,-1.8384316E0,1.4826841E0,-1.4089891E0,2.846466E0,-1.1659609E0,2.8418093E0,7.831359E0,-1.965326E0,2.7439282E0,1.6271187E0,6.7222857E0,3.766846E0,-1.5610887E0,2.3807752E0,-2.4644337E0,1.8540207E0,5.3190875E0,1.830391E0,-2.4536798E0,-5.8846335E0,3.8875353E-1,-6.239096E0,-1.4048779E0,2.817602E0,-1.9181038E0,-4.7654757E0,4.7165224E-1,3.380768E0,-6.494874E-1,5.9200854E0,6.6521895E-1,3.7751302E-1,-3.8169215E0,-3.5892045E0,-4.6193424E-1,1.1867106E0,-5.2652154E-2],"categories":[],"categories_nodes":[],"categories_segments":[],"categories_sizes":[],"default_left":[0,0,0,0,0,0,0,0,0,0,0,0,0,0,0,0,0,0,0,0,0,0,0,0,0,0,0,0,0,0,0,0,0,0,0,0,0,0,0,0,0,0,0,0,0,0,0,0,0,0,0,0,0,0,0,0,0,0,0,0,0,0,0,0,0,0,0,0,0,0,0,0,0,0,0,0,0,0,0,0,0,0,0,0,0,0,0,0,0,0,0,0,0,0,0,0,0,0,0,0,0,0,0,0,0,0,0,0,0],"id":12,"left_children":[1,3,5,7,9,11,13,15,17,19,21,23,25,27,29,31,33,35,37,39,41,43,45,47,49,51,53,-1,55,57,59,61,-1,63,65,67,69,71,73,75,77,-1,79,81,83,-1,-1,85,87,89,91,93,95,-1,-1,97,99,101,103,105,107,-1,-1,-1,-1,-1,-1,-1,-1,-1,-1,-1,-1,-1,-1,-1,-1,-1,-1,-1,-1,-1,-1,-1,-1,-1,-1,-1,-1,-1,-1,-1,-1,-1,-1,-1,-1,-1,-1,-1,-1,-1,-1,-1,-1,-1,-1,-1,-1],"loss_changes":[8.864086E2,2.189817E3,1.4569354E3,1.2499672E3,1.0424885E3,1.7773033E3,8.014072E2,2.3729634E3,1.0197877E3,9.7522534E2,8.297102E2,7.590364E2,2.0518213E2,9.046195E2,1.01097015E3,4.1972734E3,1.0891086E3,6.357686E2,9.1082654E2,1.5015863E3,1.4647002E3,1.183665E3,3.8776627E0,1.7093291E3,5.1690454E2,9.804192E2,1.5234961E2,0E0,8.7511536E2,2.267567E3,2.0146903E3,2.0171294E3,0E0,1.2283625E3,1.2970002E3,8.483375E2,6.8524634E2,1.8491388E3,1.9020432E3,7.633962E2,3.520508E1,0E0,5.473783E2,5.0365186E2,9.9842896E2,0E0,0E0,7.4878253E2,1.1794531E2,4.066169E2,3.91167E2,6.5032715E1,4.9693463E2,0E0,0E0,3.2425024E2,2.0370293E2,2.0256799E3,1.1638733E3,2.808254E3,1.1224518E3,0E0,0E0,0E0,0E0,0E0,0E0,0E0,0E0,0E0,0E0,0E0,0E0,0E0,0E0,0E0,0E0,0E0,0E0,0E0,0E0,0E0,0E0,0E0,0E0,0E0,0E0,0E0,0E0,0E0,0E0,0E0,0E0,0E0,0E0,0E0,0E0,0E0,0E0,0E0,0E0,0E0,0E0,0E0,0E0,0E0,0E0,0E0,0E0],"parents":[2147483647,0,0,1,1,2,2,3,3,4,4,5,5,6,6,7,7,8,8,9,9,10,10,11,11,12,12,13,13,14,14,15,15,16,16,17,17,18,18,19,19,20,20,21,21,22,22,23,23,24,24,25,25,26,26,28,28,29,29,30,30,31,31,33,33,34,34,35,35,36,36,37,37,38,38,39,39,40,40,42,42,43,43,44,44,47,47,48,48,49,49,50,50,51,51,52,52,55,55,56,56,57,57,58,58,59,59,60,60],"right_children":[2,4,6,8,10,12,14,16,18,20,22,24,26,28,30,32,34,36,38,40,42,44,46,48,50,52,54,-1,56,58,60,62,-1,64,66,68,70,72,74,76,78,-1,80,82,84,-1,-1,86,88,90,92,94,96,-1,-1,98,100,102,104,106,108,-1,-1,-1,-1,-1,-1,-1,-1,-1,-1,-1,-1,-1,-1,-1,-1,-1,-1,-1,-1,-1,-1,-1,-1,-1,-1,-1,-1,-1,-1,-1,-1,-1,-1,-1,-1,-1,-1,-1,-1,-1,-1,-1,-1,-1,-1,-1,-1],"split_conditions":[1.27279215E1,1.2496718E1,1.288981E1,2.6881784E1,1.2214363E2,2.1E0,3.7516637E0,1.4418369E1,7.69592E0,2.7341583E1,3.1354082E1,1.3273523E2,2.7416582E1,1.3406166E1,1.2372141E1,1.2313894E1,1.2261157E1,7.145796E0,3.1601205E2,2.7014502E1,2.7560331E1,2.5E0,3.1622839E1,1.1079426E2,2.6311834E1,4.3999996E0,1.0799999E1,4.025173E0,2.6164503E1,1.6572834E1,2.3767122E1,2.1000001E0,-1.376308E1,1.1570515E1,1.48270035E1,6.9247384E0,2.9716581E1,1.7064708E2,1.1440978E1,1.94895E1,1E-1,-9.042285E0,1.2599998E1,2.187075E1,2.69895E1,-5.04411E-1,-2.1431832E0,1.2768586E1,1.2758432E1,1.4213148E2,3.0492755E2,2.6272247E1,1.1175453E2,-1.9572769E0,-6.6265135E0,2.1500002E1,2.6837416E1,1.6965895E1,2.289611E1,1.5111424E1,2.9139927E1,1.4968411E0,-2.3757043E0,2.7788196E0,-1.0555074E0,-2.1747515E-1,8.715949E0,1.3661804E0,-2.1162326E0,2.4851243E0,-2.432573E0,-7.129765E-2,-1.8384316E0,1.4826841E0,-1.4089891E0,2.846466E0,-1.1659609E0,2.8418093E0,7.831359E0,-1.965326E0,2.7439282E0,1.6271187E0,6.7222857E0,3.766846E0,-1.5610887E0,2.3807752E0,-2.4644337E0,1.8540207E0,5.3190875E0,1.830391E0,-2.4536798E0,-5.8846335E0,3.8875353E-1,-6.239096E0,-1.4048779E0,2.817602E0,-1.9181038E0,-4.7654757E0,4.7165224E-1,3.380768E0,-6.494874E-1,5.9200854E0,6.6521895E-1,3.7751302E-1,-3.8169215E0,-3.5892045E0,-4.6193424E-1,1.1867106E0,-5.2652154E-2],"split_indices":[2,2,2,3,3,1,3,3,2,0,0,3,0,0,3,2,2,2,3,0,0,1,0,3,0,1,1,0,0,0,3,1,0,2,0,2,0,3,2,0,1,0,2,0,0,0,0,2,2,3,3,0,3,0,0,1,0,2,2,2,3,0,0,0,0,0,0,0,0,0,0,0,0,0,0,0,0,0,0,0,0,0,0,0,0,0,0,0,0,0,0,0,0,0,0,0,0,0,0,0,0,0,0,0,0,0,0,0,0],"split_type":[0,0,0,0,0,0,0,0,0,0,0,0,0,0,0,0,0,0,0,0,0,0,0,0,0,0,0,0,0,0,0,0,0,0,0,0,0,0,0,0,0,0,0,0,0,0,0,0,0,0,0,0,0,0,0,0,0,0,0,0,0,0,0,0,0,0,0,0,0,0,0,0,0,0,0,0,0,0,0,0,0,0,0,0,0,0,0,0,0,0,0,0,0,0,0,0,0,0,0,0,0,0,0,0,0,0,0,0,0],"sum_hessian":[2.683E3,9.26E2,1.757E3,8.72E2,5.4E1,4.8E1,1.709E3,1.03E2,7.69E2,2.8E1,2.6E1,3E1,1.8E1,1.4E1,1.695E3,5.4E1,4.9E1,5.6E1,7.13E2,2E1,8E0,2.4E1,2E0,2E1,1E1,1.2E1,6E0,1E0,1.3E1,7.1E1,1.624E3,5.3E1,1E0,4.3E1,6E0,2.5E1,3.1E1,6.1E2,1.03E2,1.6E1,4E0,1E0,7E0,1.3E1,1.1E1,1E0,1E0,1.3E1,7E0,6E0,4E0,5E0,7E0,2E0,4E0,1E1,3E0,2.6E1,4.5E1,1.53E2,1.471E3,3.6E1,1.7E1,3.4E1,9E0,2E0,4E0,1.6E1,9E0,2.9E1,2E0,5.52E2,5.8E1,7.6E1,2.7E1,6E0,1E1,2E0,2E0,4E0,3E0,3E0,1E1,6E0,5E0,3E0,1E1,3E0,4E0,3E0,3E0,3E0,1E0,4E0,1E0,2E0,5E0,9E0,1E0,1E0,2E0,1.2E1,1.4E1,3.9E1,6E0,3.2E1,1.21E2,6.8E1,1.403E3],"tree_param":{"num_deleted":"0","num_feature":"4","num_nodes":"109","size_leaf_vector":"1"}},{"base_weights":[1.05266785E-2,8.441202E-2,-3.5227275E0,3.7673876E-2,1.1208916E1,-4.725203E0,5.668575E0,7.4418515E-2,-7.9543624E0,1.838844E1,-5.952359E0,5.1590858E0,-7.1438537E0,1.0966291E-1,-6.972053E0,-1.612421E0,-1.6510597E1,6.2988434E0,8.670997E0,-4.0816717E0,1.1339022E0,-4.6206117E0,9.833546E0,-1.1412112E1,-2.12891E0,6.597029E-2,1.1406348E1,-1.39215145E1,9.734159E-1,-8.615763E0,7.544861E0,-5.8969717E0,-5.89004E-1,3.7970872E0,-2.1588848E0,-3.2430956E-1,8.345656E-1,2.6402047E0,-7.398359E0,-4.4041114E0,-1.8446132E0,1.53112E1,-7.1331244E0,1.261263E-1,-2.1932118E-1,4.738748E0,-1.2303132E0,-2.3165185E0,-7.668035E0,-4.0099654E0,1.6773508E0,7.359593E-1,-3.5988905E0,-9.6119505E-1,3.6587412E0,-1.1367989E0,1.6530076E-1,-3.2791853E0,6.3968354E-1,-1.8476893E0,8.7926733E-1,7.2365446E0,-2.9896889E0,-4.7204134E-1,-4.4552116E0],"categories":[],"categories_nodes":[],"categories_segments":[],"categories_sizes":[],"default_left":[0,0,0,0,0,0,0,0,0,0,0,0,0,0,0,0,0,0,0,0,0,0,0,0,0,0,0,0,0,0,0,0,0,0,0,0,0,0,0,0,0,0,0,0,0,0,0,0,0,0,0,0,0,0,0,0,0,0,0,0,0,0,0,0,0],"id":13,"left_children":[1,3,5,7,9,11,-1,13,15,17,19,21,23,25,27,29,31,33,-1,-1,35,37,-1,39,41,43,45,47,49,51,53,-1,-1,-1,55,-1,-1,-1,57,-1,59,61,63,-1,-1,-1,-1,-1,-1,-1,-1,-1,-1,-1,-1,-1,-1,-1,-1,-1,-1,-1,-1,-1,-1],"loss_changes":[7.009709E2,1.3670165E3,1.5719226E3,7.699929E2,1.4647622E3,1.3039077E3,0E0,6.4870624E2,6.245356E2,8.3490796E2,2.3235806E2,3.1226594E3,8.961228E2,1.2810796E3,7.3136896E2,5.780573E2,1.9023376E2,2.962009E2,0E0,0E0,1.3957827E1,4.0063925E2,0E0,6.9210864E2,1.9419718E3,7.314475E2,7.45473E2,3.077296E2,5.382636E2,2.165246E2,2.3904416E2,0E0,0E0,0E0,1.53428955E1,0E0,0E0,0E0,2.9262454E2,0E0,1.6227365E2,1.3539109E3,7.0605286E2,0E0,0E0,0E0,0E0,0E0,0E0,0E0,0E0,0E0,0E0,0E0,0E0,0E0,0E0,0E0,0E0,0E0,0E0,0E0,0E0,0E0,0E0],"parents":[2147483647,0,0,1,1,2,2,3,3,4,4,5,5,7,7,8,8,9,9,10,10,11,11,12,12,13,13,14,14,15,15,16,16,17,17,20,20,21,21,23,23,24,24,25,25,26,26,27,27,28,28,29,29,30,30,34,34,38,38,40,40,41,41,42,42],"right_children":[2,4,6,8,10,12,-1,14,16,18,20,22,24,26,28,30,32,34,-1,-1,36,38,-1,40,42,44,46,48,50,52,54,-1,-1,-1,56,-1,-1,-1,58,-1,60,62,64,-1,-1,-1,-1,-1,-1,-1,-1,-1,-1,-1,-1,-1,-1,-1,-1,-1,-1,-1,-1,-1,-1],"split_conditions":[2.5772078E1,2.5284714E1,3.0293085E1,2.4985659E1,1.09E1,1.853325E1,5.668575E0,3.2735332E1,1.808742E1,4E-1,1.61E1,3.865983E1,6.74794E1,3.2327003E1,1.6055355E1,3.4476845E1,1.0599998E1,2.0962414E1,8.670997E0,-4.0816717E0,1.4460335E1,1E-1,9.833546E0,2.9574827E1,8.534378E1,1.6299694E1,1.917958E2,1.5509274E1,1.7400047E1,1.3344514E1,1.5970752E1,-5.8969717E0,-5.89004E-1,3.7970872E0,2.3614502E1,-3.2430956E-1,8.345656E-1,2.6402047E0,7.7E0,-4.4041114E0,2.1364502E1,2.8E1,8.200001E0,1.261263E-1,-2.1932118E-1,4.738748E0,-1.2303132E0,-2.3165185E0,-7.668035E0,-4.0099654E0,1.6773508E0,7.359593E-1,-3.5988905E0,-9.6119505E-1,3.6587412E0,-1.1367989E0,1.6530076E-1,-3.2791853E0,6.3968354E-1,-1.8476893E0,8.7926733E-1,7.2365446E0,-2.9896889E0,-4.7204134E-1,-4.4552116E0],"split_indices":[2,2,0,2,1,0,0,0,0,1,1,3,3,0,2,3,1,0,0,0,0,1,0,2,3,2,3,2,3,3,0,0,0,0,0,0,0,0,1,0,0,1,1,0,0,0,0,0,0,0,0,0,0,0,0,0,0,0,0,0,0,0,0,0,0],"split_type":[0,0,0,0,0,0,0,0,0,0,0,0,0,0,0,0,0,0,0,0,0,0,0,0,0,0,0,0,0,0,0,0,0,0,0,0,0,0,0,0,0,0,0,0,0,0,0,0,0,0,0,0,0,0,0,0,0,0,0,0,0,0,0,0,0],"sum_hessian":[2.683E3,2.629E3,5.4E1,2.619E3,1E1,5.2E1,2E0,2.608E3,1.1E1,7E0,3E0,1E1,4.2E1,2.596E3,1.2E1,7E0,4E0,4E0,3E0,1E0,2E0,8E0,2E0,2.2E1,2E1,2.587E3,9E0,6E0,6E0,4E0,3E0,3E0,1E0,2E0,2E0,1E0,1E0,1E0,7E0,1.6E1,6E0,4E0,1.6E1,1.791E3,7.96E2,7E0,2E0,5E0,1E0,1E0,5E0,1E0,3E0,1E0,2E0,1E0,1E0,5E0,2E0,3E0,3E0,3E0,1E0,1E1,6E0],"tree_param":{"num_deleted":"0","num_feature":"4","num_nodes":"65","size_leaf_vector":"1"}},{"base_weights":[8.04572E-3,4.1548967E-2,-6.878779E0,-2.4175293E0,1.2131761E-1,3.0445213E0,-1.0160221E1,-7.732144E0,6.782221E-1,1.0353255E1,-6.7290305E-3,-2.4556E0,2.8548753E0,-1.468627E1,-2.6969185E0,4.134028E0,-1.9115057E1,1.8651037E0,-1.1326239E1,4.8918247E0,2.0334911E1,-5.3752694E0,8.2855955E-2,-1.6541462E1,-8.115458E-1,-1.6220628E-1,-9.3024135E-1,-1.0137611E1,9.736042E0,-2.710589E1,-4.9688563E0,9.6815294E-1,6.8723536E0,-1.6272E1,1.268521E0,8.963053E0,-7.1640925E0,3.2093E1,5.1876698E0,7.9340296E0,-8.263816E0,1.1751845E1,3.162272E-2,-9.231583E-1,-5.7414694E0,8.1929404E-1,-4.2112513E0,-2.391695E0,3.6211948E0,2.3463273E0,-9.556704E0,7.0557466E0,-4.0910153E0,-2.364805E0,6.459245E-1,-1.2556E0,-5.6717334E0,3.3640969E0,-5.069758E0,1.1303254E1,6.25565E-1,2.5469878E0,-1.6985666E0,6.9445314E0,-2.986538E-1,-3.4715993E0,7.736797E-1,4.8201165E0,-1.53332E0,4.5023182E-1,-3.953245E-2],"categories":[],"categories_nodes":[],"categories_segments":[],"categories_sizes":[],"default_left":[0,0,0,0,0,0,0,0,0,0,0,0,0,0,0,0,0,0,0,0,0,0,0,0,0,0,0,0,0,0,0,0,0,0,0,0,0,0,0,0,0,0,0,0,0,0,0,0,0,0,0,0,0,0,0,0,0,0,0,0,0,0,0,0,0,0,0,0,0,0,0],"id":14,"left_children":[1,3,5,7,9,11,13,15,17,19,21,-1,-1,23,25,27,29,31,33,35,37,39,41,43,-1,-1,-1,45,47,49,51,53,-1,55,-1,57,-1,59,61,63,65,67,69,-1,-1,-1,-1,-1,-1,-1,-1,-1,-1,-1,-1,-1,-1,-1,-1,-1,-1,-1,-1,-1,-1,-1,-1,-1,-1,-1,-1],"loss_changes":[6.1956775E2,5.244257E2,4.5424866E2,1.387273E3,3.3920874E3,3.686E2,2.9818494E2,4.266241E3,7.9050977E2,1.6449768E3,1.2306915E3,0E0,0E0,8.8616455E1,2.6777916E0,1.377899E3,1.6739536E3,9.215368E2,4.5345227E2,2.7910747E3,1.7926411E3,1.6802354E3,1.5043918E3,1.15926025E2,0E0,0E0,0E0,2.8926678E2,5.923357E2,1.9081035E3,2.0492349E3,5.3086487E2,0E0,4.820752E1,0E0,1.3536139E3,0E0,9.269077E2,2.630395E2,1.1099061E3,1.2852856E3,8.8255676E2,6.0201685E2,0E0,0E0,0E0,0E0,0E0,0E0,0E0,0E0,0E0,0E0,0E0,0E0,0E0,0E0,0E0,0E0,0E0,0E0,0E0,0E0,0E0,0E0,0E0,0E0,0E0,0E0,0E0,0E0],"parents":[2147483647,0,0,1,1,2,2,3,3,4,4,5,5,6,6,7,7,8,8,9,9,10,10,13,13,14,14,15,15,16,16,17,17,18,18,19,19,20,20,21,21,22,22,23,23,27,27,28,28,29,29,30,30,31,31,33,33,35,35,37,37,38,38,39,39,40,40,41,41,42,42],"right_children":[2,4,6,8,10,12,14,16,18,20,22,-1,-1,24,26,28,30,32,34,36,38,40,42,44,-1,-1,-1,46,48,50,52,54,-1,56,-1,58,-1,60,62,64,66,68,70,-1,-1,-1,-1,-1,-1,-1,-1,-1,-1,-1,-1,-1,-1,-1,-1,-1,-1,-1,-1,-1,-1,-1,-1,-1,-1,-1,-1],"split_conditions":[3.5833408E2,1.3206168E1,1E-1,2.1571407E1,1.3799915E1,1.3406166E1,1.1399999E1,1.380491E1,1.98E1,1.7114204E1,1.4655583E1,-2.4556E0,2.8548753E0,2.3188583E1,9.901999E0,1.3358861E1,1.7072504E1,1.90392E1,2.8000002E0,1.656E1,2.0457623E1,1.696812E1,1.48270035E1,1.4056167E1,-8.115458E-1,-1.6220628E-1,-9.3024135E-1,9.227524E0,8.567384E0,9.901999E0,1E-1,1.1043261E1,6.8723536E0,2.0633371E1,1.268521E0,1.0000001E0,-7.1640925E0,1.6000001E0,2.0633371E1,1.624394E1,1.5000001E0,1.624394E1,1.7802E1,-9.231583E-1,-5.7414694E0,8.1929404E-1,-4.2112513E0,-2.391695E0,3.6211948E0,2.3463273E0,-9.556704E0,7.0557466E0,-4.0910153E0,-2.364805E0,6.459245E-1,-1.2556E0,-5.6717334E0,3.3640969E0,-5.069758E0,1.1303254E1,6.25565E-1,2.5469878E0,-1.6985666E0,6.9445314E0,-2.986538E-1,-3.4715993E0,7.736797E-1,4.8201165E0,-1.53332E0,4.5023182E-1,-3.953245E-2],"split_indices":[3,0,1,3,0,0,1,3,2,2,0,0,0,2,0,2,2,2,1,2,3,3,0,0,0,0,0,2,3,0,1,2,0,2,0,1,0,1,2,2,1,2,0,0,0,0,0,0,0,0,0,0,0,0,0,0,0,0,0,0,0,0,0,0,0,0,0,0,0,0,0],"split_type":[0,0,0,0,0,0,0,0,0,0,0,0,0,0,0,0,0,0,0,0,0,0,0,0,0,0,0,0,0,0,0,0,0,0,0,0,0,0,0,0,0,0,0,0,0,0,0,0,0,0,0,0,0,0,0,0,0,0,0,0,0,0,0,0,0,0,0,0,0,0,0],"sum_hessian":[2.683E3,2.671E3,1.2E1,8.3E1,2.588E3,3E0,9E0,3E1,5.3E1,3.1E1,2.557E3,1E0,2E0,5E0,4E0,1.5E1,1.5E1,4.9E1,4E0,2.1E1,1E1,4.1E1,2.516E3,4E0,1E0,1E0,3E0,4E0,1.1E1,9E0,6E0,4.8E1,1E0,3E0,1E0,1.9E1,2E0,5E0,5E0,7E0,3.4E1,1E1,2.506E3,1E0,3E0,1E0,3E0,1E0,1E1,1E0,8E0,1E0,5E0,5E0,4.3E1,1E0,2E0,1.8E1,1E0,4E0,1E0,4E0,1E0,2E0,5E0,2.6E1,8E0,8E0,2E0,2.5E2,2.256E3],"tree_param":{"num_deleted":"0","num_feature":"4","num_nodes":"71","size_leaf_vector":"1"}},{"base_weights":[4.319643E-3,3.2515854E-2,-5.791418E0,-4.1550924E-3,8.903929E0,-9.150984E0,1.2166048E0,2.7928188E-1,-5.8729506E-1,1.1967404E1,-9.763428E-1,-4.51814E0,-4.4668536E0,1.09896414E-1,3.270614E0,-5.7255926E0,-3.460215E-1,3.4326644E0,5.432599E0,-7.1060395E0,1.7052395E0,1.8699498E-1,-8.001959E0,4.4879026E0,-1.2847474E1,4.4750347E0,-6.66136E0,9.703258E0,-5.2965176E-1,2.3488755E0,-2.1084774E0,7.5204086E-1,-1.5214801E1,-1.6335264E-1,2.0666756E-1,-3.432413E0,3.2147934E0,5.5668483E0,1.0326152E0,-6.322412E0,-4.2251244E-1,-4.343449E0,-7.4902564E-1,4.411469E0,-9.7229904E-1,-3.1363726E0,-8.425998E-2,-1.1373185E0,1.8850365E-1,-8.57766E-1,1.7378736E0,-6.5119004E0,-3.347603E-1],"categories":[],"categories_nodes":[],"categories_segments":[],"categories_sizes":[],"default_left":[0,0,0,0,0,0,0,0,0,0,0,0,0,0,0,0,0,0,0,0,0,0,0,0,0,0,0,0,0,0,0,0,0,0,0,0,0,0,0,0,0,0,0,0,0,0,0,0,0,0,0,0,0],"id":15,"left_children":[1,3,5,7,9,11,-1,13,15,17,-1,-1,19,21,23,25,27,29,-1,31,-1,33,35,37,39,-1,41,43,45,-1,47,49,51,-1,-1,-1,-1,-1,-1,-1,-1,-1,-1,-1,-1,-1,-1,-1,-1,-1,-1,-1,-1],"loss_changes":[4.388018E2,8.6930023E2,4.671616E2,4.4014856E2,4.4866455E2,2.0953485E2,0E0,9.0762585E2,1.0778284E3,4.0956543E2,0E0,0E0,2.2792404E2,1.0628212E3,1.9412137E3,8.52708E2,1.5423173E3,1.3832828E2,0E0,3.9375793E2,0E0,6.179036E2,1.1526663E3,1.2603274E3,6.2910364E2,0E0,1.2009008E3,1.01879553E3,2.0193167E3,0E0,1.61969E1,8.93788E1,2.5034961E2,0E0,0E0,0E0,0E0,0E0,0E0,0E0,0E0,0E0,0E0,0E0,0E0,0E0,0E0,0E0,0E0,0E0,0E0,0E0,0E0],"parents":[2147483647,0,0,1,1,2,2,3,3,4,4,5,5,7,7,8,8,9,9,12,12,13,13,14,14,15,15,16,16,17,17,19,19,21,21,22,22,23,23,24,24,26,26,27,27,28,28,30,30,31,31,32,32],"right_children":[2,4,6,8,10,12,-1,14,16,18,-1,-1,20,22,24,26,28,30,-1,32,-1,34,36,38,40,-1,42,44,46,-1,48,50,52,-1,-1,-1,-1,-1,-1,-1,-1,-1,-1,-1,-1,-1,-1,-1,-1,-1,-1,-1,-1],"split_conditions":[3.2735332E1,3.2327003E1,1.673516E1,1.6299694E1,1.917958E2,1.9713826E2,1.2166048E0,1.59134655E1,1.0542333E1,1.6322629E2,-9.763428E-1,-4.51814E0,1.6171976E1,1.5827721E1,3.412177E2,1.0989499E1,1.2372141E1,1.3225734E2,5.432599E0,1.5509274E1,1.7052395E0,1.130176E2,1.5000001E1,1.380491E1,1.4000001E0,4.4750347E0,2.0904081E1,2.289611E1,1.2407665E1,2.3488755E0,1E-1,1.4417988E1,1.6055355E1,-1.6335264E-1,2.0666756E-1,-3.432413E0,3.2147934E0,5.5668483E0,1.0326152E0,-6.322412E0,-4.2251244E-1,-4.343449E0,-7.4902564E-1,4.411469E0,-9.7229904E-1,-3.1363726E0,-8.425998E-2,-1.1373185E0,1.8850365E-1,-8.57766E-1,1.7378736E0,-6.5119004E0,-3.347603E-1],"split_indices":[0,0,2,2,3,3,0,2,3,3,0,0,2,2,3,0,3,3,0,2,0,3,1,3,1,0,0,2,0,0,1,2,2,0,0,0,0,0,0,0,0,0,0,0,0,0,0,0,0,0,0,0,0],"split_type":[0,0,0,0,0,0,0,0,0,0,0,0,0,0,0,0,0,0,0,0,0,0,0,0,0,0,0,0,0,0,0,0,0,0,0,0,0,0,0,0,0,0,0,0,0,0,0,0,0,0,0,0,0],"sum_hessian":[2.683E3,2.671E3,1.2E1,2.661E3,1E1,9E0,3E0,1.791E3,8.7E2,8E0,2E0,3E0,6E0,1.696E3,9.5E1,3.8E1,8.32E2,4E0,4E0,5E0,1E0,1.681E3,1.5E1,8.9E1,6E0,1E0,3.7E1,1.4E1,8.18E2,2E0,2E0,3E0,2E0,6.84E2,9.97E2,1.3E1,2E0,5E0,8.4E1,3E0,3E0,1.2E1,2.5E1,1E1,4E0,1.9E1,7.99E2,1E0,1E0,2E0,1E0,1E0,1E0],"tree_param":{"num_deleted":"0","num_feature":"4","num_nodes":"53","size_leaf_vector":"1"}},{"base_weights":[2.1201544E-3,3.6229858E-1,-4.4629773E-1,5.0167525E-1,-4.121293E0,-7.1547437E-1,3.080417E0,-4.3649077E-2,1.8783932E0,3.3102705E0,-5.869009E0,5.773797E-1,-1.4890443E0,1.0177544E0,7.473627E0,9.095424E-2,-1.0642891E1,1.5853538E1,1.4533803E0,-1.6047832E1,-2.9151175E0,-3.056117E0,3.4044118E0,-1.3580059E1,-1.2929945E0,-1.8857183E0,6.7738123E0,1.5880719E1,7.0120573E-1,-2.8580657E-1,2.3953662E0,-1.495884E1,-7.456039E-1,-4.1215515E-1,1.9147892E1,2.1059804E0,-6.096937E0,-2.3247696E1,-1.2360802E0,1.8741194E0,-1.0427337E1,-3.8591552E0,7.7420077E0,1.1839612E1,2.112238E0,3.3084996E0,-1.7143732E1,-3.7178212E-1,-2.8880365E0,3.224927E0,-7.15761E0,1.1804089E1,5.6312716E-1,7.1233444E0,1.2255707E-1,2.944277E0,-4.9417295E0,1.6965775E-2,-2.0399091E0,2.536942E0,3.5201E-1,4.0473178E-1,-5.1497917E0,-1.6471086E0,1.2743065E0,1.0665826E0,-1.2520523E0,6.246329E0,6.13361E-1,3.2466584E-1,1.9119692E0,-3.056331E0,1.996936E-1,-2.7502718E0,-8.39876E0,-6.563736E-1,2.429123E-1,-1.0065398E0,2.7657745E0,-7.9440064E0,-1.5304179E0,-1.3181509E0,2.788604E0,6.039908E0,-6.3425704E-4,7.7875537E-1,5.0381665E0,-2.2342744E0,8.718475E-1,-6.77285E0,-1.005312E0,-2.7416638E-1,2.0985534E0,-4.4113426E0,-6.6996527E-1,3.5504956E0,-8.951861E-1,-2.7450879E0,2.1553063E0,1.7503133E0,6.2377467E0,-1.4639382E0,1.5015123E0,-1.0423928E0,1.1036713E0,-1.0882788E0,1.4668635E0],"categories":[],"categories_nodes":[],"categories_segments":[],"categories_sizes":[],"default_left":[0,0,0,0,0,0,0,0,0,0,0,0,0,0,0,0,0,0,0,0,0,0,0,0,0,0,0,0,0,0,0,0,0,0,0,0,0,0,0,0,0,0,0,0,0,0,0,0,0,0,0,0,0,0,0,0,0,0,0,0,0,0,0,0,0,0,0,0,0,0,0,0,0,0,0,0,0,0,0,0,0,0,0,0,0,0,0,0,0,0,0,0,0,0,0,0,0,0,0,0,0,0,0,0,0,0,0],"id":16,"left_children":[1,3,5,7,9,11,13,15,17,-1,19,21,23,25,27,29,31,33,35,37,39,41,43,45,47,49,51,53,55,57,59,61,63,65,67,69,71,73,75,77,79,81,83,85,87,-1,89,91,93,95,97,99,101,-1,103,105,-1,-1,-1,-1,-1,-1,-1,-1,-1,-1,-1,-1,-1,-1,-1,-1,-1,-1,-1,-1,-1,-1,-1,-1,-1,-1,-1,-1,-1,-1,-1,-1,-1,-1,-1,-1,-1,-1,-1,-1,-1,-1,-1,-1,-1,-1,-1,-1,-1,-1,-1],"loss_changes":[4.3365573E2,9.325559E2,1.1375779E3,1.0849271E3,1.2567E3,1.1129855E3,7.62639E2,1.479022E3,2.4122012E3,0E0,1.1859716E3,4.293833E3,1.6322684E3,9.988144E2,1.5261462E3,8.897338E2,5.441571E2,6.5091113E2,1.9788477E3,9.3104736E2,1.2068094E3,1.6167264E3,2.536432E3,1.1537256E3,1.0069159E3,1.1007936E3,6.1818207E2,1.4841111E3,6.648465E2,1.9650936E3,1.056638E3,3.4710278E2,1.4178114E2,5.9606678E1,2.4360425E2,1.6007638E3,8.9204834E2,1.4447461E2,9.560553E0,8.3753186E2,9.7635913E2,1.243564E3,1.2474908E3,1.3760859E3,1.5775397E3,0E0,6.7362524E2,1.7476333E3,1.9093064E3,1.1579503E3,6.3731836E2,4.6892847E2,2.6619345E2,0E0,7.674733E1,2.094981E2,0E0,0E0,0E0,0E0,0E0,0E0,0E0,0E0,0E0,0E0,0E0,0E0,0E0,0E0,0E0,0E0,0E0,0E0,0E0,0E0,0E0,0E0,0E0,0E0,0E0,0E0,0E0,0E0,0E0,0E0,0E0,0E0,0E0,0E0,0E0,0E0,0E0,0E0,0E0,0E0,0E0,0E0,0E0,0E0,0E0,0E0,0E0,0E0,0E0,0E0,0E0],"parents":[2147483647,0,0,1,1,2,2,3,3,4,4,5,5,6,6,7,7,8,8,10,10,11,11,12,12,13,13,14,14,15,15,16,16,17,17,18,18,19,19,20,20,21,21,22,22,23,23,24,24,25,25,26,26,27,27,28,28,29,29,30,30,31,31,32,32,33,33,34,34,35,35,36,36,37,37,38,38,39,39,40,40,41,41,42,42,43,43,44,44,46,46,47,47,48,48,49,49,50,50,51,51,52,52,54,54,55,55],"right_children":[2,4,6,8,10,12,14,16,18,-1,20,22,24,26,28,30,32,34,36,38,40,42,44,46,48,50,52,54,56,58,60,62,64,66,68,70,72,74,76,78,80,82,84,86,88,-1,90,92,94,96,98,100,102,-1,104,106,-1,-1,-1,-1,-1,-1,-1,-1,-1,-1,-1,-1,-1,-1,-1,-1,-1,-1,-1,-1,-1,-1,-1,-1,-1,-1,-1,-1,-1,-1,-1,-1,-1,-1,-1,-1,-1,-1,-1,-1,-1,-1,-1,-1,-1,-1,-1,-1,-1,-1,-1],"split_conditions":[2.5687414E1,3.5053775E2,3.2412277E2,1.36503E2,8.28E0,1.2508934E2,2.8297836E1,1.3596625E2,1.3698158E2,3.3102705E0,1.1212135E1,2.7304083E1,1.26072556E2,1.36E1,1.1000001E0,2.423533E1,1.6055355E1,9.686609E0,2.1924562E1,8E-1,7E-1,2.2065973E1,2.7497833E1,2.6612417E1,1.9000003E0,1.1440978E1,2.69895E1,2.9024918E1,1.725373E1,2.3614502E1,1.0514218E1,1.024578E1,1.3622832E2,1.7401415E1,2.4972832E1,1.9E0,1.5146884E2,3.5365988E2,1.4056167E1,1E-1,2.2E0,1.2295065E2,2.5893667E1,1.1570515E1,2.7635332E1,3.3084996E0,2.7931166E1,1.4000001E0,2.1000001E0,2.4E0,1.9839235E1,3.447955E2,3.457031E2,7.1233444E0,1.2682018E1,1.4000001E0,-4.9417295E0,1.6965775E-2,-2.0399091E0,2.536942E0,3.5201E-1,4.0473178E-1,-5.1497917E0,-1.6471086E0,1.2743065E0,1.0665826E0,-1.2520523E0,6.246329E0,6.13361E-1,3.2466584E-1,1.9119692E0,-3.056331E0,1.996936E-1,-2.7502718E0,-8.39876E0,-6.563736E-1,2.429123E-1,-1.0065398E0,2.7657745E0,-7.9440064E0,-1.5304179E0,-1.3181509E0,2.788604E0,6.039908E0,-6.3425704E-4,7.7875537E-1,5.0381665E0,-2.2342744E0,8.718475E-1,-6.77285E0,-1.005312E0,-2.7416638E-1,2.0985534E0,-4.4113426E0,-6.6996527E-1,3.5504956E0,-8.951861E-1,-2.7450879E0,2.1553063E0,1.7503133E0,6.2377467E0,-1.4639382E0,1.5015123E0,-1.0423928E0,1.1036713E0,-1.0882788E0,1.4668635E0],"split_indices":[0,3,3,3,2,3,0,3,3,0,2,0,3,1,1,0,2,2,2,1,1,2,0,0,1,2,0,0,2,0,2,2,3,0,0,1,3,3,0,1,1,3,0,2,0,0,0,1,1,1,2,3,3,0,2,1,0,0,0,0,0,0,0,0,0,0,0,0,0,0,0,0,0,0,0,0,0,0,0,0,0,0,0,0,0,0,0,0,0,0,0,0,0,0,0,0,0,0,0,0,0,0,0,0,0,0,0],"split_type":[0,0,0,0,0,0,0,0,0,0,0,0,0,0,0,0,0,0,0,0,0,0,0,0,0,0,0,0,0,0,0,0,0,0,0,0,0,0,0,0,0,0,0,0,0,0,0,0,0,0,0,0,0,0,0,0,0,0,0,0,0,0,0,0,0,0,0,0,0,0,0,0,0,0,0,0,0,0,0,0,0,0,0,0,0,0,0,0,0,0,0,0,0,0,0,0,0,0,0,0,0,0,0,0,0,0,0],"sum_hessian":[2.683E3,1.488E3,1.195E3,1.444E3,4.4E1,1.111E3,8.4E1,1.035E3,4.09E2,4E0,4E1,4.16E2,6.95E2,5.8E1,2.6E1,1.023E3,1.2E1,1.1E1,3.98E2,8E0,3.2E1,1.82E2,2.34E2,1E1,6.85E2,3.9E1,1.9E1,1.1E1,1.5E1,8.8E2,1.43E2,8E0,4E0,2E0,9E0,3.67E2,3.1E1,5E0,3E0,2E1,1.2E1,1.7E2,1.2E1,3E1,2.04E2,1E0,9E0,4.35E2,2.5E2,2E1,1.9E1,1E1,9E0,7E0,4E0,1.4E1,1E0,8.37E2,4.3E1,2.3E1,1.2E2,1E0,7E0,2E0,2E0,1E0,1E0,8E0,1E0,2.97E2,7E1,1.9E1,1.2E1,2E0,3E0,2E0,1E0,1.2E1,8E0,2E0,1E1,1.64E2,6E0,4E0,8E0,1.1E1,1.9E1,1.5E1,1.89E2,6E0,3E0,4.06E2,2.9E1,1.2E1,2.38E2,8E0,1.2E1,1.7E1,2E0,7E0,3E0,4E0,5E0,2E0,2E0,3E0,1.1E1],"tree_param":{"num_deleted":"0","num_feature":"4","num_nodes":"107","size_leaf_vector":"1"}},{"base_weights":[2.5218574E-3,5.7203615E-1,-2.4920359E-1,7.009735E-1,-5.9750514E0,-2.3787997E0,-1.0374995E-1,5.08874E-1,9.103736E0,-1.199439E1,1.5435858E0,-8.4512347E-1,-1.2955947E1,7.43597E0,-1.9110686E-1,7.2437435E-1,-4.463054E0,-5.9721894E0,1.3837728E1,-1.7457708E1,-8.008156E-1,1.7952439E0,-2.3175797E0,9.158349E0,-1.9945242E0,-1.5528184E1,2.5090637E0,1.0950775E1,-4.8394556E0,1.1460993E0,-4.6438688E-1,2.336704E0,9.521416E-2,6.4576135E0,-1.0216916E1,-3.6061432E0,-1.454998E0,8.009809E0,8.5408306E-1,-3.3364003E0,-2.3684261E1,-1.8848542E0,2.346792E0,-1.1868262E0,6.354675E-1,1.2639692E1,2.4527984E0,-1.9858082E1,-5.671149E-1,-1.7076544E1,4.5781863E-1,-3.1576848E0,4.2867637E0,1.573508E1,-4.6354322E0,1.0504164E1,4.9537444E-1,-8.933418E0,-2.5837868E-1,-1.1236956E-1,1.8355235E0,-2.6415546E0,1.8861283E-1,-5.382825E-1,3.2423527E0,-9.312163E0,-1.5885788E0,7.498017E-2,-9.854691E-1,-9.82436E-1,1.7404948E0,-2.5719843E0,1.070604E0,-1.8016893E0,-8.272579E0,1.8424817E0,4.793357E0,1.258313E0,-3.1913757E-2,-8.563596E0,-3.2022374E0,8.752891E-1,-1.3608534E0,-7.8743653E0,-3.3308997E0,1.9379809E0,1.4277188E1,-4.067802E0,4.6590295E0,2.207943E-1,4.8422823E0,-1.2878861E0,7.445496E-1,-1.008803E1,-1.9017744E0,-7.012698E-1,4.105449E-3],"categories":[],"categories_nodes":[],"categories_segments":[],"categories_sizes":[],"default_left":[0,0,0,0,0,0,0,0,0,0,0,0,0,0,0,0,0,0,0,0,0,0,0,0,0,0,0,0,0,0,0,0,0,0,0,0,0,0,0,0,0,0,0,0,0,0,0,0,0,0,0,0,0,0,0,0,0,0,0,0,0,0,0,0,0,0,0,0,0,0,0,0,0,0,0,0,0,0,0,0,0,0,0,0,0,0,0,0,0,0,0,0,0,0,0,0,0],"id":17,"left_children":[1,3,5,7,9,11,13,15,17,19,21,23,25,27,29,31,33,35,37,39,41,-1,43,45,47,49,51,53,-1,55,57,59,61,63,65,-1,67,-1,69,71,73,-1,-1,-1,-1,75,77,79,81,83,-1,-1,-1,85,87,89,91,93,95,-1,-1,-1,-1,-1,-1,-1,-1,-1,-1,-1,-1,-1,-1,-1,-1,-1,-1,-1,-1,-1,-1,-1,-1,-1,-1,-1,-1,-1,-1,-1,-1,-1,-1,-1,-1,-1,-1],"loss_changes":[3.8492413E2,6.9893536E2,5.7652167E2,